<?xml version="1.0"?>
<opencv_storage>
<cascade>
  <stageType>BOOST</stageType>
  <featureType>HAAR</featureType>
  <height>24</height>
  <width>24</width>
  <stageParams>
    <boostType>GAB</boostType>
    <minHitRate>9.9500000476837158e-01</minHitRate>
    <maxFalseAlarm>5.0000000000000000e-01</maxFalseAlarm>
    <weightTrimRate>9.4999999999999996e-01</weightTrimRate>
    <maxDepth>1</maxDepth>
    <maxWeakCount>100</maxWeakCount></stageParams>
  <featureParams>
    <maxCatCount>0</maxCatCount>
    <featSize>1</featSize>
    <mode>BASIC</mode></featureParams>
  <stageNum>12</stageNum>
  <stages>
    <!-- stage 0 -->
    <_>
      <maxWeakCount>9</maxWeakCount>
      <stageThreshold>-1.1833064556121826e+00</stageThreshold>
      <weakClassifiers>
        <_>
          <internalNodes>
            0 -1 93 -8.9670047163963318e-03</internalNodes>
          <leafValues>
            6.9576060771942139e-01 -5.0183749198913574e-01</leafValues></_>
        <_>
          <internalNodes>
            0 -1 255 -1.1855386197566986e-01</internalNodes>
          <leafValues>
            -8.8771921396255493e-01 1.5406921505928040e-01</leafValues></_>
        <_>
          <internalNodes>
            0 -1 123 6.9698333740234375e-02</internalNodes>
          <leafValues>
            -2.4076630175113678e-01 7.5052034854888916e-01</leafValues></_>
        <_>
          <internalNodes>
            0 -1 67 -7.3594145476818085e-02</internalNodes>
          <leafValues>
            6.8798434734344482e-01 -3.2617345452308655e-01</leafValues></_>
        <_>
          <internalNodes>
            0 -1 193 -1.5584024786949158e-01</internalNodes>
          <leafValues>
            1.9877126812934875e-01 -9.6360641717910767e-01</leafValues></_>
        <_>
          <internalNodes>
            0 -1 11 1.3800656422972679e-02</internalNodes>
          <leafValues>
            1.4663746953010559e-01 -6.3302171230316162e-01</leafValues></_>
        <_>
          <internalNodes>
            0 -1 196 1.1708413064479828e-01</internalNodes>
          <leafValues>
            -1.7228735983371735e-01 8.6418956518173218e-01</leafValues></_>
        <_>
          <internalNodes>
            0 -1 48 9.9735006690025330e-02</internalNodes>
          <leafValues>
            -1.3093860447406769e-01 8.0321151018142700e-01</leafValues></_>
        <_>
          <internalNodes>
            0 -1 39 9.8588876426219940e-03</internalNodes>
          <leafValues>
            -2.1754445135593414e-01 4.6887794137001038e-01</leafValues></_></weakClassifiers></_>
    <!-- stage 1 -->
    <_>
      <maxWeakCount>12</maxWeakCount>
      <stageThreshold>-1.4194633960723877e+00</stageThreshold>
      <weakClassifiers>
        <_>
          <internalNodes>
            0 -1 65 -1.0988121852278709e-02</internalNodes>
          <leafValues>
            5.4587155580520630e-01 -4.9212923645973206e-01</leafValues></_>
        <_>
          <internalNodes>
            0 -1 92 -1.5438730828464031e-02</internalNodes>
          <leafValues>
            -7.7271628379821777e-01 1.3400425016880035e-01</leafValues></_>
        <_>
          <internalNodes>
            0 -1 248 1.6818360891193151e-03</internalNodes>
          <leafValues>
            1.4502009749412537e-01 -5.3907608985900879e-01</leafValues></_>
        <_>
          <internalNodes>
            0 -1 248 -1.7475665081292391e-03</internalNodes>
          <leafValues>
            -5.5457335710525513e-01 1.8217153847217560e-01</leafValues></_>
        <_>
          <internalNodes>
            0 -1 97 7.8174337744712830e-02</internalNodes>
          <leafValues>
            -1.2432783097028732e-01 6.6409176588058472e-01</leafValues></_>
        <_>
          <internalNodes>
            0 -1 108 1.3256299495697021e-01</internalNodes>
          <leafValues>
            -1.5934422612190247e-01 6.5978014469146729e-01</leafValues></_>
        <_>
          <internalNodes>
            0 -1 187 -2.0486963912844658e-02</internalNodes>
          <leafValues>
            -8.8588047027587891e-01 1.1367143690586090e-01</leafValues></_>
        <_>
          <internalNodes>
            0 -1 106 1.3061618804931641e-01</internalNodes>
          <leafValues>
            -1.3171592354774475e-01 6.3179630041122437e-01</leafValues></_>
        <_>
          <internalNodes>
            0 -1 190 -1.0783663392066956e-01</internalNodes>
          <leafValues>
            7.1366441249847412e-01 -1.0705715417861938e-01</leafValues></_>
        <_>
          <internalNodes>
            0 -1 162 2.0788009278476238e-03</internalNodes>
          <leafValues>
            1.4388661086559296e-01 -6.1534231901168823e-01</leafValues></_>
        <_>
          <internalNodes>
            0 -1 14 -2.6130191981792450e-03</internalNodes>
          <leafValues>
            2.4162803590297699e-01 -3.3510529994964600e-01</leafValues></_>
        <_>
          <internalNodes>
            0 -1 60 8.4142219275236130e-03</internalNodes>
          <leafValues>
            -1.6593416035175323e-01 5.7350617647171021e-01</leafValues></_></weakClassifiers></_>
    <!-- stage 2 -->
    <_>
      <maxWeakCount>11</maxWeakCount>
      <stageThreshold>-1.0941509008407593e+00</stageThreshold>
      <weakClassifiers>
        <_>
          <internalNodes>
            0 -1 56 -9.6951220184564590e-03</internalNodes>
          <leafValues>
            -9.3579071760177612e-01 -8.1134893000125885e-02</leafValues></_>
        <_>
          <internalNodes>
            0 -1 79 -1.0535445995628834e-02</internalNodes>
          <leafValues>
            5.1862382888793945e-01 -2.7214163541793823e-01</leafValues></_>
        <_>
          <internalNodes>
            0 -1 31 -1.3057691976428032e-02</internalNodes>
          <leafValues>
            -1. 1.1968503147363663e-01</leafValues></_>
        <_>
          <internalNodes>
            0 -1 273 8.1247333437204361e-03</internalNodes>
          <leafValues>
            -2.0573335886001587e-01 4.8888343572616577e-01</leafValues></_>
        <_>
          <internalNodes>
            0 -1 124 5.6459151208400726e-02</internalNodes>
          <leafValues>
            -1.5938083827495575e-01 4.7461736202239990e-01</leafValues></_>
        <_>
          <internalNodes>
            0 -1 201 -3.3667307347059250e-02</internalNodes>
          <leafValues>
            3.7836533784866333e-01 -2.0207087695598602e-01</leafValues></_>
        <_>
          <internalNodes>
            0 -1 9 1.2832450680434704e-02</internalNodes>
          <leafValues>
            1.2930268049240112e-01 -5.5204671621322632e-01</leafValues></_>
        <_>
          <internalNodes>
            0 -1 13 -4.8129475116729736e-01</internalNodes>
          <leafValues>
            -7.4075895547866821e-01 8.3787761628627777e-02</leafValues></_>
        <_>
          <internalNodes>
            0 -1 41 1.8179059028625488e-02</internalNodes>
          <leafValues>
            8.9550212025642395e-02 -5.5238348245620728e-01</leafValues></_>
        <_>
          <internalNodes>
            0 -1 45 -6.8367668427526951e-03</internalNodes>
          <leafValues>
            -4.1426557302474976e-01 1.3297176361083984e-01</leafValues></_>
        <_>
          <internalNodes>
            0 -1 175 9.2966813826933503e-04</internalNodes>
          <leafValues>
            1.2566910684108734e-01 -5.1076936721801758e-01</leafValues></_></weakClassifiers></_>
    <!-- stage 3 -->
    <_>
      <maxWeakCount>24</maxWeakCount>
      <stageThreshold>-1.4158917665481567e+00</stageThreshold>
      <weakClassifiers>
        <_>
          <internalNodes>
            0 -1 210 -6.5583223477005959e-03</internalNodes>
          <leafValues>
            -4.2551505565643311e-01 3.8036808371543884e-01</leafValues></_>
        <_>
          <internalNodes>
            0 -1 237 -2.2761063650250435e-02</internalNodes>
          <leafValues>
            5.7069885730743408e-01 -1.5122385323047638e-01</leafValues></_>
        <_>
          <internalNodes>
            0 -1 285 -3.1579606235027313e-02</internalNodes>
          <leafValues>
            -8.9229571819305420e-01 8.5486933588981628e-02</leafValues></_>
        <_>
          <internalNodes>
            0 -1 214 -4.2403209954500198e-03</internalNodes>
          <leafValues>
            -5.6174516677856445e-01 1.3283777236938477e-01</leafValues></_>
        <_>
          <internalNodes>
            0 -1 135 -2.6256252080202103e-02</internalNodes>
          <leafValues>
            6.1999380588531494e-01 -1.3315372169017792e-01</leafValues></_>
        <_>
          <internalNodes>
            0 -1 228 -1.2774182856082916e-01</internalNodes>
          <leafValues>
            -4.1883051395416260e-01 1.7464329302310944e-01</leafValues></_>
        <_>
          <internalNodes>
            0 -1 241 3.8262351881712675e-04</internalNodes>
          <leafValues>
            1.8641583621501923e-01 -3.5792192816734314e-01</leafValues></_>
        <_>
          <internalNodes>
            0 -1 268 1.0187823500018567e-04</internalNodes>
          <leafValues>
            -3.4903708100318909e-01 1.7273738980293274e-01</leafValues></_>
        <_>
          <internalNodes>
            0 -1 140 6.4427137374877930e-02</internalNodes>
          <leafValues>
            -9.7939357161521912e-02 7.5110477209091187e-01</leafValues></_>
        <_>
          <internalNodes>
            0 -1 147 -1.2622601934708655e-04</internalNodes>
          <leafValues>
            -3.4357038140296936e-01 1.6853792965412140e-01</leafValues></_>
        <_>
          <internalNodes>
            0 -1 88 9.6734575927257538e-03</internalNodes>
          <leafValues>
            -1.0025317966938019e-01 5.1004612445831299e-01</leafValues></_>
        <_>
          <internalNodes>
            0 -1 153 -1.4004018157720566e-02</internalNodes>
          <leafValues>
            -6.2947732210159302e-01 9.2738576233386993e-02</leafValues></_>
        <_>
          <internalNodes>
            0 -1 4 3.3695042133331299e-02</internalNodes>
          <leafValues>
            7.3801979422569275e-02 -5.6999778747558594e-01</leafValues></_>
        <_>
          <internalNodes>
            0 -1 10 4.4193869829177856e-01</internalNodes>
          <leafValues>
            5.4117150604724884e-02 -7.9080641269683838e-01</leafValues></_>
        <_>
          <internalNodes>
            0 -1 281 -1.6186283901333809e-03</internalNodes>
          <leafValues>
            -5.4015910625457764e-01 7.8337050974369049e-02</leafValues></_>
        <_>
          <internalNodes>
            0 -1 44 -3.2979575917124748e-04</internalNodes>
          <leafValues>
            -2.5729697942733765e-01 1.8107521533966064e-01</leafValues></_>
        <_>
          <internalNodes>
            0 -1 80 -3.5294908285140991e-01</internalNodes>
          <leafValues>
            -5.3058540821075439e-01 1.0989425331354141e-01</leafValues></_>
        <_>
          <internalNodes>
            0 -1 100 2.6108461315743625e-04</internalNodes>
          <leafValues>
            1.1100252717733383e-01 -4.1103285551071167e-01</leafValues></_>
        <_>
          <internalNodes>
            0 -1 265 -9.6201552078127861e-03</internalNodes>
          <leafValues>
            -5.6951665878295898e-01 7.0373855531215668e-02</leafValues></_>
        <_>
          <internalNodes>
            0 -1 59 -1.3851408660411835e-01</internalNodes>
          <leafValues>
            -6.0927778482437134e-01 6.9938592612743378e-02</leafValues></_>
        <_>
          <internalNodes>
            0 -1 114 -2.4756789207458496e-02</internalNodes>
          <leafValues>
            4.5952168107032776e-01 -1.0298573225736618e-01</leafValues></_>
        <_>
          <internalNodes>
            0 -1 181 2.7928718924522400e-01</internalNodes>
          <leafValues>
            7.7292889356613159e-02 -6.0507142543792725e-01</leafValues></_>
        <_>
          <internalNodes>
            0 -1 293 -8.4807109087705612e-03</internalNodes>
          <leafValues>
            -6.3263106346130371e-01 7.0179797708988190e-02</leafValues></_>
        <_>
          <internalNodes>
            0 -1 8 1.1031696572899818e-02</internalNodes>
          <leafValues>
            6.4640529453754425e-02 -6.1056154966354370e-01</leafValues></_></weakClassifiers></_>
    <!-- stage 4 -->
    <_>
      <maxWeakCount>18</maxWeakCount>
      <stageThreshold>-1.4416071176528931e+00</stageThreshold>
      <weakClassifiers>
        <_>
          <internalNodes>
            0 -1 15 -1.3405440840870142e-03</internalNodes>
          <leafValues>
            3.9764359593391418e-02 -6.7292225360870361e-01</leafValues></_>
        <_>
          <internalNodes>
            0 -1 126 -3.4622281789779663e-02</internalNodes>
          <leafValues>
            3.2809934020042419e-01 -2.9531547427177429e-01</leafValues></_>
        <_>
          <internalNodes>
            0 -1 254 -8.8495798408985138e-03</internalNodes>
          <leafValues>
            -5.9043568372726440e-01 1.5338580310344696e-01</leafValues></_>
        <_>
          <internalNodes>
            0 -1 16 5.2174329757690430e-01</internalNodes>
          <leafValues>
            1.1560901999473572e-01 -8.3397710323333740e-01</leafValues></_>
        <_>
          <internalNodes>
            0 -1 271 1.3106226921081543e-02</internalNodes>
          <leafValues>
            -1.4335598051548004e-01 5.2077525854110718e-01</leafValues></_>
        <_>
          <internalNodes>
            0 -1 3 -2.6681531220674515e-02</internalNodes>
          <leafValues>
            -6.3421899080276489e-01 1.1433419585227966e-01</leafValues></_>
        <_>
          <internalNodes>
            0 -1 122 -2.1657235920429230e-02</internalNodes>
          <leafValues>
            -8.5031384229660034e-01 4.6839982271194458e-02</leafValues></_>
        <_>
          <internalNodes>
            0 -1 139 3.3681418746709824e-02</internalNodes>
          <leafValues>
            -8.1473119556903839e-02 7.8941977024078369e-01</leafValues></_>
        <_>
          <internalNodes>
            0 -1 19 -9.1907510068267584e-05</internalNodes>
          <leafValues>
            2.3962302505970001e-01 -2.7389097213745117e-01</leafValues></_>
        <_>
          <internalNodes>
            0 -1 185 -2.3541638802271336e-04</internalNodes>
          <leafValues>
            -4.5133668184280396e-01 1.4316579699516296e-01</leafValues></_>
        <_>
          <internalNodes>
            0 -1 189 3.5084046423435211e-02</internalNodes>
          <leafValues>
            -1.8653365969657898e-01 3.4716925024986267e-01</leafValues></_>
        <_>
          <internalNodes>
            0 -1 132 -2.2623112425208092e-02</internalNodes>
          <leafValues>
            4.1575649380683899e-01 -1.4160193502902985e-01</leafValues></_>
        <_>
          <internalNodes>
            0 -1 263 3.3702977816574275e-04</internalNodes>
          <leafValues>
            1.2262102961540222e-01 -4.9242278933525085e-01</leafValues></_>
        <_>
          <internalNodes>
            0 -1 267 6.7202735226601362e-04</internalNodes>
          <leafValues>
            1.0110839456319809e-01 -5.2406609058380127e-01</leafValues></_>
        <_>
          <internalNodes>
            0 -1 220 -4.8779964447021484e-02</internalNodes>
          <leafValues>
            5.0387132167816162e-01 -1.4311778545379639e-01</leafValues></_>
        <_>
          <internalNodes>
            0 -1 244 -3.3524729311466217e-02</internalNodes>
          <leafValues>
            8.0673265457153320e-01 -6.2279388308525085e-02</leafValues></_>
        <_>
          <internalNodes>
            0 -1 204 -2.0320439338684082e-01</internalNodes>
          <leafValues>
            -2.0467896759510040e-01 2.8699526190757751e-01</leafValues></_>
        <_>
          <internalNodes>
            0 -1 283 1.1364634148776531e-02</internalNodes>
          <leafValues>
            7.8158758580684662e-02 -6.9948840141296387e-01</leafValues></_></weakClassifiers></_>
    <!-- stage 5 -->
    <_>
      <maxWeakCount>26</maxWeakCount>
      <stageThreshold>-1.3589686155319214e+00</stageThreshold>
      <weakClassifiers>
        <_>
          <internalNodes>
            0 -1 103 -1.4026273973286152e-02</internalNodes>
          <leafValues>
            3.5905045270919800e-01 -4.2618384957313538e-01</leafValues></_>
        <_>
          <internalNodes>
            0 -1 275 8.2615669816732407e-03</internalNodes>
          <leafValues>
            -1.9432437419891357e-01 3.7920770049095154e-01</leafValues></_>
        <_>
          <internalNodes>
            0 -1 85 2.0717572420835495e-02</internalNodes>
          <leafValues>
            -1.4752395451068878e-01 5.1284080743789673e-01</leafValues></_>
        <_>
          <internalNodes>
            0 -1 208 4.0389955043792725e-02</internalNodes>
          <leafValues>
            -9.9000692367553711e-02 5.3146392107009888e-01</leafValues></_>
        <_>
          <internalNodes>
            0 -1 284 2.8826382011175156e-02</internalNodes>
          <leafValues>
            6.7709587514400482e-02 -8.4174913167953491e-01</leafValues></_>
        <_>
          <internalNodes>
            0 -1 202 -2.7370184659957886e-01</internalNodes>
          <leafValues>
            -6.6615211963653564e-01 8.7358959019184113e-02</leafValues></_>
        <_>
          <internalNodes>
            0 -1 92 -1.9616456702351570e-02</internalNodes>
          <leafValues>
            -7.5672423839569092e-01 7.5520135462284088e-02</leafValues></_>
        <_>
          <internalNodes>
            0 -1 111 1.8994301557540894e-02</internalNodes>
          <leafValues>
            6.0308568179607391e-02 -6.7823123931884766e-01</leafValues></_>
        <_>
          <internalNodes>
            0 -1 131 -2.9157777316868305e-04</internalNodes>
          <leafValues>
            -4.0499368309974670e-01 1.1195413023233414e-01</leafValues></_>
        <_>
          <internalNodes>
            0 -1 186 2.5927787646651268e-04</internalNodes>
          <leafValues>
            1.2707881629467010e-01 -3.7508556246757507e-01</leafValues></_>
        <_>
          <internalNodes>
            0 -1 144 3.9569274522364140e-03</internalNodes>
          <leafValues>
            -1.6888107359409332e-01 2.8502973914146423e-01</leafValues></_>
        <_>
          <internalNodes>
            0 -1 249 -2.7229724451899529e-02</internalNodes>
          <leafValues>
            6.9192564487457275e-01 -8.2593612372875214e-02</leafValues></_>
        <_>
          <internalNodes>
            0 -1 226 4.8044761642813683e-03</internalNodes>
          <leafValues>
            -1.5262790024280548e-01 2.9354572296142578e-01</leafValues></_>
        <_>
          <internalNodes>
            0 -1 291 1.3820162042975426e-02</internalNodes>
          <leafValues>
            8.0200888216495514e-02 -5.2176904678344727e-01</leafValues></_>
        <_>
          <internalNodes>
            0 -1 25 3.3431148529052734e-01</internalNodes>
          <leafValues>
            9.0296156704425812e-02 -5.1529401540756226e-01</leafValues></_>
        <_>
          <internalNodes>
            0 -1 33 -2.9708832502365112e-01</internalNodes>
          <leafValues>
            -6.5616321563720703e-01 6.1305388808250427e-02</leafValues></_>
        <_>
          <internalNodes>
            0 -1 266 -9.7087922040373087e-04</internalNodes>
          <leafValues>
            -7.3041474819183350e-01 4.9950487911701202e-02</leafValues></_>
        <_>
          <internalNodes>
            0 -1 258 3.2049161382019520e-03</internalNodes>
          <leafValues>
            -2.6618850231170654e-01 1.6720373928546906e-01</leafValues></_>
        <_>
          <internalNodes>
            0 -1 262 2.1800966933369637e-03</internalNodes>
          <leafValues>
            8.6257852613925934e-02 -4.9586427211761475e-01</leafValues></_>
        <_>
          <internalNodes>
            0 -1 199 -1.9224170595407486e-02</internalNodes>
          <leafValues>
            5.8754146099090576e-01 -8.2638539373874664e-02</leafValues></_>
        <_>
          <internalNodes>
            0 -1 84 4.8763602972030640e-02</internalNodes>
          <leafValues>
            -6.9315381348133087e-02 5.9418946504592896e-01</leafValues></_>
        <_>
          <internalNodes>
            0 -1 82 -9.1339997947216034e-02</internalNodes>
          <leafValues>
            4.9369689822196960e-01 -9.0349435806274414e-02</leafValues></_>
        <_>
          <internalNodes>
            0 -1 23 3.2496899366378784e-03</internalNodes>
          <leafValues>
            6.2540419399738312e-02 -8.1345295906066895e-01</leafValues></_>
        <_>
          <internalNodes>
            0 -1 130 2.4105591699481010e-02</internalNodes>
          <leafValues>
            -1.5160734951496124e-01 3.3370813727378845e-01</leafValues></_>
        <_>
          <internalNodes>
            0 -1 18 2.1717051044106483e-02</internalNodes>
          <leafValues>
            8.2102648913860321e-02 -6.0601526498794556e-01</leafValues></_>
        <_>
          <internalNodes>
            0 -1 161 3.8340047467499971e-04</internalNodes>
          <leafValues>
            8.4815561771392822e-02 -4.8207443952560425e-01</leafValues></_></weakClassifiers></_>
    <!-- stage 6 -->
    <_>
      <maxWeakCount>30</maxWeakCount>
      <stageThreshold>-1.3363423347473145e+00</stageThreshold>
      <weakClassifiers>
        <_>
          <internalNodes>
            0 -1 105 -1.4514068141579628e-02</internalNodes>
          <leafValues>
            2.5558313727378845e-01 -4.3032285571098328e-01</leafValues></_>
        <_>
          <internalNodes>
            0 -1 5 -2.2483780048787594e-03</internalNodes>
          <leafValues>
            -4.7883716225624084e-01 9.2143535614013672e-02</leafValues></_>
        <_>
          <internalNodes>
            0 -1 72 -1.1964498460292816e-01</internalNodes>
          <leafValues>
            1.3967122137546539e-01 -3.9870122075080872e-01</leafValues></_>
        <_>
          <internalNodes>
            0 -1 74 1.5080047305673361e-03</internalNodes>
          <leafValues>
            1.2316592782735825e-01 -4.9005365371704102e-01</leafValues></_>
        <_>
          <internalNodes>
            0 -1 247 -1.9872547127306461e-03</internalNodes>
          <leafValues>
            -6.0770386457443237e-01 9.7385369241237640e-02</leafValues></_>
        <_>
          <internalNodes>
            0 -1 248 2.3631192743778229e-03</internalNodes>
          <leafValues>
            9.6533715724945068e-02 -5.7590705156326294e-01</leafValues></_>
        <_>
          <internalNodes>
            0 -1 138 -3.9733499288558960e-02</internalNodes>
          <leafValues>
            2.6193508505821228e-01 -1.9165275990962982e-01</leafValues></_>
        <_>
          <internalNodes>
            0 -1 109 4.9403500743210316e-03</internalNodes>
          <leafValues>
            -9.4236813485622406e-02 5.0009518861770630e-01</leafValues></_>
        <_>
          <internalNodes>
            0 -1 0 8.3298858953639865e-04</internalNodes>
          <leafValues>
            5.9994213283061981e-02 -7.5027978420257568e-01</leafValues></_>
        <_>
          <internalNodes>
            0 -1 217 2.0669041201472282e-02</internalNodes>
          <leafValues>
            -1.3284991681575775e-01 3.4455654025077820e-01</leafValues></_>
        <_>
          <internalNodes>
            0 -1 270 1.7411896958947182e-02</internalNodes>
          <leafValues>
            -8.8696606457233429e-02 5.2501630783081055e-01</leafValues></_>
        <_>
          <internalNodes>
            0 -1 261 -5.5273401085287333e-04</internalNodes>
          <leafValues>
            -4.7704493999481201e-01 8.7340332567691803e-02</leafValues></_>
        <_>
          <internalNodes>
            0 -1 207 -3.8960017263889313e-04</internalNodes>
          <leafValues>
            -3.0504828691482544e-01 1.2871906161308289e-01</leafValues></_>
        <_>
          <internalNodes>
            0 -1 95 1.2131345272064209e-01</internalNodes>
          <leafValues>
            -9.2250205576419830e-02 4.2656511068344116e-01</leafValues></_>
        <_>
          <internalNodes>
            0 -1 154 -1.3310438953340054e-02</internalNodes>
          <leafValues>
            3.2122802734375000e-01 -1.6663058102130890e-01</leafValues></_>
        <_>
          <internalNodes>
            0 -1 7 1.3469047844409943e-02</internalNodes>
          <leafValues>
            6.4418524503707886e-02 -7.9187160730361938e-01</leafValues></_>
        <_>
          <internalNodes>
            0 -1 232 -3.8642589002847672e-02</internalNodes>
          <leafValues>
            3.1279075145721436e-01 -1.4664766192436218e-01</leafValues></_>
        <_>
          <internalNodes>
            0 -1 280 -6.6328258253633976e-04</internalNodes>
          <leafValues>
            -5.8828395605087280e-01 7.2227925062179565e-02</leafValues></_>
        <_>
          <internalNodes>
            0 -1 49 -8.5757873952388763e-02</internalNodes>
          <leafValues>
            5.0871169567108154e-01 -9.1773666441440582e-02</leafValues></_>
        <_>
          <internalNodes>
            0 -1 213 -7.3476368561387062e-03</internalNodes>
          <leafValues>
            -7.4797350168228149e-01 5.8083660900592804e-02</leafValues></_>
        <_>
          <internalNodes>
            0 -1 155 -1.1375248432159424e-03</internalNodes>
          <leafValues>
            1.4810661971569061e-01 -2.7725353837013245e-01</leafValues></_>
        <_>
          <internalNodes>
            0 -1 63 2.8673470020294189e-02</internalNodes>
          <leafValues>
            5.1939915865659714e-02 -7.3507797718048096e-01</leafValues></_>
        <_>
          <internalNodes>
            0 -1 290 1.2425710447132587e-03</internalNodes>
          <leafValues>
            7.1538619697093964e-02 -4.4851413369178772e-01</leafValues></_>
        <_>
          <internalNodes>
            0 -1 156 -1.3972498476505280e-02</internalNodes>
          <leafValues>
            3.4211286902427673e-01 -1.0575183480978012e-01</leafValues></_>
        <_>
          <internalNodes>
            0 -1 238 -1.6403046902269125e-03</internalNodes>
          <leafValues>
            -4.7455945611000061e-01 7.1559861302375793e-02</leafValues></_>
        <_>
          <internalNodes>
            0 -1 2 -2.5389563292264938e-02</internalNodes>
          <leafValues>
            -6.3651633262634277e-01 5.3236383944749832e-02</leafValues></_>
        <_>
          <internalNodes>
            0 -1 163 -3.1448014080524445e-02</internalNodes>
          <leafValues>
            3.5616442561149597e-01 -1.0554914176464081e-01</leafValues></_>
        <_>
          <internalNodes>
            0 -1 107 4.6844575554132462e-02</internalNodes>
          <leafValues>
            -1.7166832089424133e-01 3.2068338990211487e-01</leafValues></_>
        <_>
          <internalNodes>
            0 -1 73 -5.3998492658138275e-02</internalNodes>
          <leafValues>
            -8.8329094648361206e-01 4.4653709977865219e-02</leafValues></_>
        <_>
          <internalNodes>
            0 -1 32 4.5113096712157130e-04</internalNodes>
          <leafValues>
            7.2455368936061859e-02 -4.0815651416778564e-01</leafValues></_></weakClassifiers></_>
    <!-- stage 7 -->
    <_>
      <maxWeakCount>32</maxWeakCount>
      <stageThreshold>-1.1833081245422363e+00</stageThreshold>
      <weakClassifiers>
        <_>
          <internalNodes>
            0 -1 277 6.7364661954343319e-03</internalNodes>
          <leafValues>
            -4.4444444775581360e-01 1.3553114235401154e-01</leafValues></_>
        <_>
          <internalNodes>
            0 -1 218 -8.8400781154632568e-02</internalNodes>
          <leafValues>
            5.0096448510885239e-02 -8.7264066934585571e-01</leafValues></_>
        <_>
          <internalNodes>
            0 -1 66 -1.7115299124270678e-03</internalNodes>
          <leafValues>
            1.7743910849094391e-01 -2.6043152809143066e-01</leafValues></_>
        <_>
          <internalNodes>
            0 -1 292 -1.1526995338499546e-02</internalNodes>
          <leafValues>
            -6.7600464820861816e-01 6.0434848070144653e-02</leafValues></_>
        <_>
          <internalNodes>
            0 -1 283 -1.4153653755784035e-02</internalNodes>
          <leafValues>
            -5.9736585617065430e-01 7.9047195613384247e-02</leafValues></_>
        <_>
          <internalNodes>
            0 -1 22 4.4166267616674304e-04</internalNodes>
          <leafValues>
            8.3414740860462189e-02 -4.7789511084556580e-01</leafValues></_>
        <_>
          <internalNodes>
            0 -1 205 -9.7585991024971008e-02</internalNodes>
          <leafValues>
            3.9836841821670532e-01 -1.1665721237659454e-01</leafValues></_>
        <_>
          <internalNodes>
            0 -1 30 -2.6682922616600990e-02</internalNodes>
          <leafValues>
            6.3794374465942383e-02 -7.9787516593933105e-01</leafValues></_>
        <_>
          <internalNodes>
            0 -1 222 -4.3710917234420776e-03</internalNodes>
          <leafValues>
            -1.2184407562017441e-01 4.2593792080879211e-01</leafValues></_>
        <_>
          <internalNodes>
            0 -1 288 1.7672091722488403e-02</internalNodes>
          <leafValues>
            8.0754674971103668e-02 -4.8087158799171448e-01</leafValues></_>
        <_>
          <internalNodes>
            0 -1 245 1.4867739751935005e-02</internalNodes>
          <leafValues>
            -1.0867684334516525e-01 3.8040736317634583e-01</leafValues></_>
        <_>
          <internalNodes>
            0 -1 191 -2.3843808099627495e-02</internalNodes>
          <leafValues>
            3.5408967733383179e-01 -9.9525734782218933e-02</leafValues></_>
        <_>
          <internalNodes>
            0 -1 256 -1.1143554002046585e-03</internalNodes>
          <leafValues>
            -4.3281936645507813e-01 9.4215512275695801e-02</leafValues></_>
        <_>
          <internalNodes>
            0 -1 167 -2.8880547732114792e-02</internalNodes>
          <leafValues>
            4.9335312843322754e-01 -9.8787292838096619e-02</leafValues></_>
        <_>
          <internalNodes>
            0 -1 21 -1.5305078704841435e-04</internalNodes>
          <leafValues>
            1.7971599102020264e-01 -2.2449424862861633e-01</leafValues></_>
        <_>
          <internalNodes>
            0 -1 76 -1.1424098163843155e-02</internalNodes>
          <leafValues>
            -7.9721891880035400e-01 4.4268485158681870e-02</leafValues></_>
        <_>
          <internalNodes>
            0 -1 69 -5.4460428655147552e-03</internalNodes>
          <leafValues>
            2.5680482387542725e-01 -1.5213993191719055e-01</leafValues></_>
        <_>
          <internalNodes>
            0 -1 281 -2.0238077268004417e-03</internalNodes>
          <leafValues>
            -5.4893445968627930e-01 6.6534563899040222e-02</leafValues></_>
        <_>
          <internalNodes>
            0 -1 86 -1.3446632027626038e-01</internalNodes>
          <leafValues>
            6.0936890542507172e-02 -5.3379750251770020e-01</leafValues></_>
        <_>
          <internalNodes>
            0 -1 219 5.8284634724259377e-03</internalNodes>
          <leafValues>
            -9.7919605672359467e-02 3.7148970365524292e-01</leafValues></_>
        <_>
          <internalNodes>
            0 -1 149 3.8075039628893137e-04</internalNodes>
          <leafValues>
            9.4419501721858978e-02 -3.8384488224983215e-01</leafValues></_>
        <_>
          <internalNodes>
            0 -1 20 -3.6979038268327713e-02</internalNodes>
          <leafValues>
            2.9236477613449097e-01 -1.3750253617763519e-01</leafValues></_>
        <_>
          <internalNodes>
            0 -1 34 1.5624104067683220e-02</internalNodes>
          <leafValues>
            -1.0031560808420181e-01 4.1624826192855835e-01</leafValues></_>
        <_>
          <internalNodes>
            0 -1 118 -1.9932821393013000e-02</internalNodes>
          <leafValues>
            5.5455815792083740e-01 -7.0373065769672394e-02</leafValues></_>
        <_>
          <internalNodes>
            0 -1 28 -1.2188045307993889e-02</internalNodes>
          <leafValues>
            2.8677099943161011e-01 -1.3301149010658264e-01</leafValues></_>
        <_>
          <internalNodes>
            0 -1 200 -4.5986999757587910e-03</internalNodes>
          <leafValues>
            -5.8743816614151001e-01 7.1341872215270996e-02</leafValues></_>
        <_>
          <internalNodes>
            0 -1 42 4.0133658330887556e-04</internalNodes>
          <leafValues>
            6.5054275095462799e-02 -4.9317878484725952e-01</leafValues></_>
        <_>
          <internalNodes>
            0 -1 91 -1.2876556254923344e-02</internalNodes>
          <leafValues>
            4.0716058015823364e-01 -9.2958323657512665e-02</leafValues></_>
        <_>
          <internalNodes>
            0 -1 243 -3.5870313644409180e-02</internalNodes>
          <leafValues>
            7.6945519447326660e-01 -4.5434493571519852e-02</leafValues></_>
        <_>
          <internalNodes>
            0 -1 160 -2.9427732806652784e-03</internalNodes>
          <leafValues>
            -1.1273519694805145e-01 3.1200852990150452e-01</leafValues></_>
        <_>
          <internalNodes>
            0 -1 192 1.6908343881368637e-02</internalNodes>
          <leafValues>
            -1.4125266671180725e-01 2.8283038735389709e-01</leafValues></_>
        <_>
          <internalNodes>
            0 -1 246 -2.2371523082256317e-02</internalNodes>
          <leafValues>
            5.3917378187179565e-01 -6.0209125280380249e-02</leafValues></_></weakClassifiers></_>
    <!-- stage 8 -->
    <_>
      <maxWeakCount>40</maxWeakCount>
      <stageThreshold>-1.2881790399551392e+00</stageThreshold>
      <weakClassifiers>
        <_>
          <internalNodes>
            0 -1 104 -1.5755228698253632e-02</internalNodes>
          <leafValues>
            1.5902964770793915e-01 -4.0701895952224731e-01</leafValues></_>
        <_>
          <internalNodes>
            0 -1 281 1.9078175537288189e-03</internalNodes>
          <leafValues>
            4.6120658516883850e-02 -6.0021328926086426e-01</leafValues></_>
        <_>
          <internalNodes>
            0 -1 259 1.3579206541180611e-02</internalNodes>
          <leafValues>
            -8.7174832820892334e-02 3.8192573189735413e-01</leafValues></_>
        <_>
          <internalNodes>
            0 -1 282 -1.5984717756509781e-03</internalNodes>
          <leafValues>
            -3.5528805851936340e-01 9.4421565532684326e-02</leafValues></_>
        <_>
          <internalNodes>
            0 -1 182 3.1657289713621140e-02</internalNodes>
          <leafValues>
            -6.9669455289840698e-02 6.4778399467468262e-01</leafValues></_>
        <_>
          <internalNodes>
            0 -1 286 6.3485116697847843e-03</internalNodes>
          <leafValues>
            6.1563637107610703e-02 -5.8059567213058472e-01</leafValues></_>
        <_>
          <internalNodes>
            0 -1 137 4.8608087003231049e-02</internalNodes>
          <leafValues>
            -4.2032737284898758e-02 6.0865026712417603e-01</leafValues></_>
        <_>
          <internalNodes>
            0 -1 240 -2.7580064488574862e-04</internalNodes>
          <leafValues>
            -3.0904477834701538e-01 1.1874661594629288e-01</leafValues></_>
        <_>
          <internalNodes>
            0 -1 61 1.0074660181999207e-02</internalNodes>
          <leafValues>
            -1.0655452311038971e-01 3.6539676785469055e-01</leafValues></_>
        <_>
          <internalNodes>
            0 -1 75 1.9798304885625839e-02</internalNodes>
          <leafValues>
            8.3680190145969391e-02 -4.7758355736732483e-01</leafValues></_>
        <_>
          <internalNodes>
            0 -1 178 -6.7199729382991791e-03</internalNodes>
          <leafValues>
            -5.9334152936935425e-01 4.5467559248209000e-02</leafValues></_>
        <_>
          <internalNodes>
            0 -1 9 -2.3569531738758087e-02</internalNodes>
          <leafValues>
            -6.6500002145767212e-01 5.9370342642068863e-02</leafValues></_>
        <_>
          <internalNodes>
            0 -1 80 -4.6707147359848022e-01</internalNodes>
          <leafValues>
            -6.5280115604400635e-01 3.9249695837497711e-02</leafValues></_>
        <_>
          <internalNodes>
            0 -1 184 1.4218699652701616e-03</internalNodes>
          <leafValues>
            7.6758623123168945e-02 -4.5029574632644653e-01</leafValues></_>
        <_>
          <internalNodes>
            0 -1 183 -2.2061518393456936e-04</internalNodes>
          <leafValues>
            -3.2049223780632019e-01 1.1197568476200104e-01</leafValues></_>
        <_>
          <internalNodes>
            0 -1 188 -1.0094288736581802e-02</internalNodes>
          <leafValues>
            -6.4938843250274658e-01 4.5314792543649673e-02</leafValues></_>
        <_>
          <internalNodes>
            0 -1 113 2.9734661802649498e-04</internalNodes>
          <leafValues>
            9.0389430522918701e-02 -3.3315739035606384e-01</leafValues></_>
        <_>
          <internalNodes>
            0 -1 242 2.6388162747025490e-02</internalNodes>
          <leafValues>
            -6.0601513832807541e-02 5.4564279317855835e-01</leafValues></_>
        <_>
          <internalNodes>
            0 -1 143 2.4694871157407761e-02</internalNodes>
          <leafValues>
            -1.4790010452270508e-01 2.4021135270595551e-01</leafValues></_>
        <_>
          <internalNodes>
            0 -1 125 -8.3946354687213898e-02</internalNodes>
          <leafValues>
            4.8210561275482178e-01 -9.2139221727848053e-02</leafValues></_>
        <_>
          <internalNodes>
            0 -1 250 1.7929047346115112e-02</internalNodes>
          <leafValues>
            -7.0702120661735535e-02 3.9672717452049255e-01</leafValues></_>
        <_>
          <internalNodes>
            0 -1 236 -3.0429448932409286e-02</internalNodes>
          <leafValues>
            4.0823543071746826e-01 -8.2662172615528107e-02</leafValues></_>
        <_>
          <internalNodes>
            0 -1 1 -5.9064161032438278e-03</internalNodes>
          <leafValues>
            -6.7243206501007080e-01 4.9784164875745773e-02</leafValues></_>
        <_>
          <internalNodes>
            0 -1 292 -1.3270075432956219e-02</internalNodes>
          <leafValues>
            -7.0731538534164429e-01 3.3105656504631042e-02</leafValues></_>
        <_>
          <internalNodes>
            0 -1 216 5.5688219144940376e-03</internalNodes>
          <leafValues>
            -7.5374349951744080e-02 4.1156223416328430e-01</leafValues></_>
        <_>
          <internalNodes>
            0 -1 171 -2.4155576829798520e-04</internalNodes>
          <leafValues>
            -3.1499031186103821e-01 9.6406280994415283e-02</leafValues></_>
        <_>
          <internalNodes>
            0 -1 119 -2.3828666657209396e-02</internalNodes>
          <leafValues>
            5.6775742769241333e-01 -5.5037435144186020e-02</leafValues></_>
        <_>
          <internalNodes>
            0 -1 43 1.8607010133564472e-03</internalNodes>
          <leafValues>
            7.4846602976322174e-02 -4.2214620113372803e-01</leafValues></_>
        <_>
          <internalNodes>
            0 -1 87 5.4549369961023331e-03</internalNodes>
          <leafValues>
            -1.6168409585952759e-01 1.8935677409172058e-01</leafValues></_>
        <_>
          <internalNodes>
            0 -1 180 2.5825220346450806e-01</internalNodes>
          <leafValues>
            4.9942068755626678e-02 -5.9397751092910767e-01</leafValues></_>
        <_>
          <internalNodes>
            0 -1 194 -2.7687428519129753e-03</internalNodes>
          <leafValues>
            -6.2561228871345520e-02 5.6635248661041260e-01</leafValues></_>
        <_>
          <internalNodes>
            0 -1 62 -1.1363573867129162e-04</internalNodes>
          <leafValues>
            -2.5173085927963257e-01 1.2857592105865479e-01</leafValues></_>
        <_>
          <internalNodes>
            0 -1 209 3.7670697201974690e-04</internalNodes>
          <leafValues>
            7.5502172112464905e-02 -3.8532438874244690e-01</leafValues></_>
        <_>
          <internalNodes>
            0 -1 141 9.6563523402437568e-04</internalNodes>
          <leafValues>
            -6.9779001176357269e-02 4.3969026207923889e-01</leafValues></_>
        <_>
          <internalNodes>
            0 -1 198 -2.0970610785298049e-04</internalNodes>
          <leafValues>
            -3.2276651263237000e-01 9.4484865665435791e-02</leafValues></_>
        <_>
          <internalNodes>
            0 -1 71 -2.3574223741889000e-03</internalNodes>
          <leafValues>
            2.3539388179779053e-01 -1.2556478381156921e-01</leafValues></_>
        <_>
          <internalNodes>
            0 -1 38 -5.4857112467288971e-02</internalNodes>
          <leafValues>
            -7.1526819467544556e-01 3.8184437900781631e-02</leafValues></_>
        <_>
          <internalNodes>
            0 -1 77 4.5393016189336777e-03</internalNodes>
          <leafValues>
            6.7463867366313934e-02 -3.8307753205299377e-01</leafValues></_>
        <_>
          <internalNodes>
            0 -1 168 -3.1205792911350727e-03</internalNodes>
          <leafValues>
            5.5269372463226318e-01 -5.5454894900321960e-02</leafValues></_>
        <_>
          <internalNodes>
            0 -1 50 -1.5735936164855957e-01</internalNodes>
          <leafValues>
            6.5869241952896118e-01 -4.3633680790662766e-02</leafValues></_></weakClassifiers></_>
    <!-- stage 9 -->
    <_>
      <maxWeakCount>33</maxWeakCount>
      <stageThreshold>-1.1489984989166260e+00</stageThreshold>
      <weakClassifiers>
        <_>
          <internalNodes>
            0 -1 170 3.7619374692440033e-02</internalNodes>
          <leafValues>
            -3.8335809111595154e-01 5.1898735761642456e-01</leafValues></_>
        <_>
          <internalNodes>
            0 -1 266 9.2887377832084894e-05</internalNodes>
          <leafValues>
            9.3491263687610626e-02 -3.3364665508270264e-01</leafValues></_>
        <_>
          <internalNodes>
            0 -1 266 -3.1019447487778962e-04</internalNodes>
          <leafValues>
            -4.3961039185523987e-01 1.1614149808883667e-01</leafValues></_>
        <_>
          <internalNodes>
            0 -1 40 4.5740383211523294e-04</internalNodes>
          <leafValues>
            -2.3453024029731750e-01 1.6110093891620636e-01</leafValues></_>
        <_>
          <internalNodes>
            0 -1 197 -3.1059444881975651e-04</internalNodes>
          <leafValues>
            -3.1042906641960144e-01 1.3513907790184021e-01</leafValues></_>
        <_>
          <internalNodes>
            0 -1 47 1.9919227808713913e-02</internalNodes>
          <leafValues>
            6.9274283945560455e-02 -5.6325268745422363e-01</leafValues></_>
        <_>
          <internalNodes>
            0 -1 112 -9.5904670655727386e-02</internalNodes>
          <leafValues>
            2.7164173126220703e-01 -1.5142308175563812e-01</leafValues></_>
        <_>
          <internalNodes>
            0 -1 64 -1.0491741821169853e-02</internalNodes>
          <leafValues>
            3.1613537669181824e-01 -1.2873940169811249e-01</leafValues></_>
        <_>
          <internalNodes>
            0 -1 223 3.4109383821487427e-02</internalNodes>
          <leafValues>
            -8.8617362082004547e-02 4.5597073435783386e-01</leafValues></_>
        <_>
          <internalNodes>
            0 -1 230 -5.6924987584352493e-03</internalNodes>
          <leafValues>
            -5.3476804494857788e-01 7.4650786817073822e-02</leafValues></_>
        <_>
          <internalNodes>
            0 -1 251 -4.5415900647640228e-02</internalNodes>
          <leafValues>
            6.3960403203964233e-01 -6.4218476414680481e-02</leafValues></_>
        <_>
          <internalNodes>
            0 -1 225 3.4160695504397154e-03</internalNodes>
          <leafValues>
            1.1058883368968964e-01 -3.3087629079818726e-01</leafValues></_>
        <_>
          <internalNodes>
            0 -1 17 1.6582436859607697e-02</internalNodes>
          <leafValues>
            5.8075081557035446e-02 -6.4562380313873291e-01</leafValues></_>
        <_>
          <internalNodes>
            0 -1 285 -3.5665735602378845e-02</internalNodes>
          <leafValues>
            -9.7875511646270752e-01 3.1909562647342682e-02</leafValues></_>
        <_>
          <internalNodes>
            0 -1 99 5.8588170213624835e-04</internalNodes>
          <leafValues>
            5.1772274076938629e-02 -4.9921515583992004e-01</leafValues></_>
        <_>
          <internalNodes>
            0 -1 173 3.9558240678161383e-04</internalNodes>
          <leafValues>
            8.9138284325599670e-02 -3.8423293828964233e-01</leafValues></_>
        <_>
          <internalNodes>
            0 -1 295 5.6232500355690718e-05</internalNodes>
          <leafValues>
            1.1258308589458466e-01 -2.4963934719562531e-01</leafValues></_>
        <_>
          <internalNodes>
            0 -1 272 8.6063779890537262e-03</internalNodes>
          <leafValues>
            -1.1199547350406647e-01 2.5925377011299133e-01</leafValues></_>
        <_>
          <internalNodes>
            0 -1 229 -9.2270940542221069e-02</internalNodes>
          <leafValues>
            -3.6783713102340698e-01 8.1716932356357574e-02</leafValues></_>
        <_>
          <internalNodes>
            0 -1 127 7.6894182711839676e-03</internalNodes>
          <leafValues>
            -5.1126893609762192e-02 6.3725274801254272e-01</leafValues></_>
        <_>
          <internalNodes>
            0 -1 164 -1.4820595970377326e-04</internalNodes>
          <leafValues>
            -2.4901351332664490e-01 1.1934470385313034e-01</leafValues></_>
        <_>
          <internalNodes>
            0 -1 81 -9.8144173622131348e-02</internalNodes>
          <leafValues>
            4.0751859545707703e-01 -7.3225468397140503e-02</leafValues></_>
        <_>
          <internalNodes>
            0 -1 36 -2.9971082694828510e-03</internalNodes>
          <leafValues>
            4.9113231897354126e-01 -5.5054944008588791e-02</leafValues></_>
        <_>
          <internalNodes>
            0 -1 90 -3.8576778024435043e-04</internalNodes>
          <leafValues>
            -2.4240794777870178e-01 1.2290943413972855e-01</leafValues></_>
        <_>
          <internalNodes>
            0 -1 176 -2.3706695064902306e-03</internalNodes>
          <leafValues>
            2.6795944571495056e-01 -1.1512298136949539e-01</leafValues></_>
        <_>
          <internalNodes>
            0 -1 115 8.8775709271430969e-02</internalNodes>
          <leafValues>
            -6.1466202139854431e-02 4.7613126039505005e-01</leafValues></_>
        <_>
          <internalNodes>
            0 -1 148 7.7259883284568787e-02</internalNodes>
          <leafValues>
            -6.3103668391704559e-02 4.4744375348091125e-01</leafValues></_>
        <_>
          <internalNodes>
            0 -1 227 3.7162197986617684e-04</internalNodes>
          <leafValues>
            9.1433115303516388e-02 -3.6025309562683105e-01</leafValues></_>
        <_>
          <internalNodes>
            0 -1 264 -3.5098392982035875e-03</internalNodes>
          <leafValues>
            4.9010434746742249e-01 -6.3892304897308350e-02</leafValues></_>
        <_>
          <internalNodes>
            0 -1 279 1.3986037811264396e-04</internalNodes>
          <leafValues>
            1.7525103688240051e-01 -1.9746099412441254e-01</leafValues></_>
        <_>
          <internalNodes>
            0 -1 257 1.4267406659200788e-03</internalNodes>
          <leafValues>
            -2.6349136233329773e-01 1.1809299886226654e-01</leafValues></_>
        <_>
          <internalNodes>
            0 -1 157 2.7904700487852097e-02</internalNodes>
          <leafValues>
            -1.5593022108078003e-01 1.9561260938644409e-01</leafValues></_>
        <_>
          <internalNodes>
            0 -1 146 2.8507057577371597e-02</internalNodes>
          <leafValues>
            -9.4778425991535187e-02 3.8553851842880249e-01</leafValues></_></weakClassifiers></_>
    <!-- stage 10 -->
    <_>
      <maxWeakCount>45</maxWeakCount>
      <stageThreshold>-1.2357476949691772e+00</stageThreshold>
      <weakClassifiers>
        <_>
          <internalNodes>
            0 -1 46 -1.3187102973461151e-02</internalNodes>
          <leafValues>
            3.4313726425170898e-01 -3.8548752665519714e-01</leafValues></_>
        <_>
          <internalNodes>
            0 -1 276 1.1790023185312748e-02</internalNodes>
          <leafValues>
            -1.0870718955993652e-01 4.3820768594741821e-01</leafValues></_>
        <_>
          <internalNodes>
            0 -1 239 -7.2238873690366745e-04</internalNodes>
          <leafValues>
            -5.5507743358612061e-01 5.1823779940605164e-02</leafValues></_>
        <_>
          <internalNodes>
            0 -1 231 2.6691055973060429e-04</internalNodes>
          <leafValues>
            1.6368289291858673e-01 -2.4046355485916138e-01</leafValues></_>
        <_>
          <internalNodes>
            0 -1 16 -5.7819986343383789e-01</internalNodes>
          <leafValues>
            -7.6789671182632446e-01 3.9875477552413940e-02</leafValues></_>
        <_>
          <internalNodes>
            0 -1 158 -2.9053452610969543e-01</internalNodes>
          <leafValues>
            8.1766927242279053e-01 -5.0580821931362152e-02</leafValues></_>
        <_>
          <internalNodes>
            0 -1 116 1.9550949335098267e-02</internalNodes>
          <leafValues>
            -1.1780416965484619e-01 2.4246796965599060e-01</leafValues></_>
        <_>
          <internalNodes>
            0 -1 101 -3.0066492035984993e-03</internalNodes>
          <leafValues>
            6.6422984004020691e-02 -4.0686926245689392e-01</leafValues></_>
        <_>
          <internalNodes>
            0 -1 96 -1.0432315059006214e-02</internalNodes>
          <leafValues>
            6.1591970920562744e-01 -3.7759851664304733e-02</leafValues></_>
        <_>
          <internalNodes>
            0 -1 145 -4.7601899132132530e-03</internalNodes>
          <leafValues>
            -5.4139178246259689e-02 5.1211065053939819e-01</leafValues></_>
        <_>
          <internalNodes>
            0 -1 177 -2.2763701155781746e-02</internalNodes>
          <leafValues>
            -5.1903855800628662e-01 5.7581793516874313e-02</leafValues></_>
        <_>
          <internalNodes>
            0 -1 233 -8.1739418208599091e-02</internalNodes>
          <leafValues>
            6.4627075195312500e-01 -5.5301006883382797e-02</leafValues></_>
        <_>
          <internalNodes>
            0 -1 224 -7.0111397653818130e-03</internalNodes>
          <leafValues>
            2.4070034921169281e-01 -1.0927455872297287e-01</leafValues></_>
        <_>
          <internalNodes>
            0 -1 195 -6.2060587108135223e-02</internalNodes>
          <leafValues>
            2.9437887668609619e-01 -9.1282404959201813e-02</leafValues></_>
        <_>
          <internalNodes>
            0 -1 83 -5.6509682908654213e-03</internalNodes>
          <leafValues>
            2.9742377996444702e-01 -1.0273668169975281e-01</leafValues></_>
        <_>
          <internalNodes>
            0 -1 235 1.5588243259117007e-03</internalNodes>
          <leafValues>
            -1.2692771852016449e-01 2.2696210443973541e-01</leafValues></_>
        <_>
          <internalNodes>
            0 -1 121 1.2382649816572666e-02</internalNodes>
          <leafValues>
            -5.0565086305141449e-02 4.9261641502380371e-01</leafValues></_>
        <_>
          <internalNodes>
            0 -1 6 1.6295537352561951e-02</internalNodes>
          <leafValues>
            4.4408280402421951e-02 -7.1275937557220459e-01</leafValues></_>
        <_>
          <internalNodes>
            0 -1 293 -1.1383809149265289e-02</internalNodes>
          <leafValues>
            -7.3416453599929810e-01 2.6957921683788300e-02</leafValues></_>
        <_>
          <internalNodes>
            0 -1 294 5.1128998165950179e-04</internalNodes>
          <leafValues>
            1.0310816764831543e-01 -2.5967714190483093e-01</leafValues></_>
        <_>
          <internalNodes>
            0 -1 212 -7.7584863174706697e-04</internalNodes>
          <leafValues>
            -5.0088071823120117e-01 4.4564034789800644e-02</leafValues></_>
        <_>
          <internalNodes>
            0 -1 278 3.7052552215754986e-03</internalNodes>
          <leafValues>
            -6.9656558334827423e-02 4.1191360354423523e-01</leafValues></_>
        <_>
          <internalNodes>
            0 -1 142 6.3767898827791214e-03</internalNodes>
          <leafValues>
            -5.0440661609172821e-02 5.1396816968917847e-01</leafValues></_>
        <_>
          <internalNodes>
            0 -1 1 6.7002875730395317e-03</internalNodes>
          <leafValues>
            3.7368897348642349e-02 -7.2644704580307007e-01</leafValues></_>
        <_>
          <internalNodes>
            0 -1 256 2.6534562930464745e-03</internalNodes>
          <leafValues>
            3.7716001272201538e-02 -5.7853782176971436e-01</leafValues></_>
        <_>
          <internalNodes>
            0 -1 284 2.6128783822059631e-02</internalNodes>
          <leafValues>
            3.1337000429630280e-02 -7.1912103891372681e-01</leafValues></_>
        <_>
          <internalNodes>
            0 -1 169 1.6145685315132141e-01</internalNodes>
          <leafValues>
            -5.8957263827323914e-02 4.9563837051391602e-01</leafValues></_>
        <_>
          <internalNodes>
            0 -1 203 7.2153769433498383e-03</internalNodes>
          <leafValues>
            -1.2085559964179993e-01 2.4219748377799988e-01</leafValues></_>
        <_>
          <internalNodes>
            0 -1 120 2.0823534578084946e-02</internalNodes>
          <leafValues>
            -1.1607860773801804e-01 2.5854176282882690e-01</leafValues></_>
        <_>
          <internalNodes>
            0 -1 165 -1.0746072512120008e-03</internalNodes>
          <leafValues>
            2.1152415871620178e-01 -1.6797348856925964e-01</leafValues></_>
        <_>
          <internalNodes>
            0 -1 174 1.2420492712408304e-03</internalNodes>
          <leafValues>
            7.6770201325416565e-02 -5.2153986692428589e-01</leafValues></_>
        <_>
          <internalNodes>
            0 -1 57 -1.8666204065084457e-02</internalNodes>
          <leafValues>
            2.4323093891143799e-01 -1.2932413816452026e-01</leafValues></_>
        <_>
          <internalNodes>
            0 -1 134 -4.4755907729268074e-03</internalNodes>
          <leafValues>
            -5.4385131597518921e-01 5.3664587438106537e-02</leafValues></_>
        <_>
          <internalNodes>
            0 -1 70 -4.5462331036105752e-04</internalNodes>
          <leafValues>
            1.8260811269283295e-01 -1.5328036248683929e-01</leafValues></_>
        <_>
          <internalNodes>
            0 -1 58 1.3882683124393225e-03</internalNodes>
          <leafValues>
            -1.4754471182823181e-01 1.9374161958694458e-01</leafValues></_>
        <_>
          <internalNodes>
            0 -1 110 5.0057265907526016e-03</internalNodes>
          <leafValues>
            6.4539983868598938e-02 -4.6943235397338867e-01</leafValues></_>
        <_>
          <internalNodes>
            0 -1 26 -1.7126509547233582e-01</internalNodes>
          <leafValues>
            -8.6722713708877563e-01 2.6866948232054710e-02</leafValues></_>
        <_>
          <internalNodes>
            0 -1 129 -8.9550077973399311e-05</internalNodes>
          <leafValues>
            -2.4432063102722168e-01 1.0146622359752655e-01</leafValues></_>
        <_>
          <internalNodes>
            0 -1 133 -4.0587140247225761e-03</internalNodes>
          <leafValues>
            3.9443409442901611e-01 -6.6420063376426697e-02</leafValues></_>
        <_>
          <internalNodes>
            0 -1 51 -2.5557372719049454e-03</internalNodes>
          <leafValues>
            2.2137418389320374e-01 -1.1396603286266327e-01</leafValues></_>
        <_>
          <internalNodes>
            0 -1 54 -1.4832959277555346e-04</internalNodes>
          <leafValues>
            -2.7594247460365295e-01 1.1867775022983551e-01</leafValues></_>
        <_>
          <internalNodes>
            0 -1 252 4.3002851307392120e-03</internalNodes>
          <leafValues>
            -9.5585286617279053e-02 2.6184314489364624e-01</leafValues></_>
        <_>
          <internalNodes>
            0 -1 55 -1.8153127282857895e-02</internalNodes>
          <leafValues>
            3.4418562054634094e-01 -7.5710088014602661e-02</leafValues></_>
        <_>
          <internalNodes>
            0 -1 152 -5.3478423506021500e-03</internalNodes>
          <leafValues>
            2.1475930511951447e-01 -1.3623842597007751e-01</leafValues></_>
        <_>
          <internalNodes>
            0 -1 151 4.4654155499301851e-04</internalNodes>
          <leafValues>
            -1.8637876212596893e-01 1.6005876660346985e-01</leafValues></_></weakClassifiers></_>
    <!-- stage 11 -->
    <_>
      <maxWeakCount>38</maxWeakCount>
      <stageThreshold>-1.2225738763809204e+00</stageThreshold>
      <weakClassifiers>
        <_>
          <internalNodes>
            0 -1 274 9.2273186892271042e-03</internalNodes>
          <leafValues>
            -4.4979366660118103e-01 4.6337816864252090e-02</leafValues></_>
        <_>
          <internalNodes>
            0 -1 289 -1.1128887999802828e-03</internalNodes>
          <leafValues>
            -3.4907788038253784e-01 9.9227070808410645e-02</leafValues></_>
        <_>
          <internalNodes>
            0 -1 287 7.6764356344938278e-03</internalNodes>
          <leafValues>
            6.6560626029968262e-02 -6.0569214820861816e-01</leafValues></_>
        <_>
          <internalNodes>
            0 -1 37 1.2101237662136555e-03</internalNodes>
          <leafValues>
            1.2854939699172974e-01 -3.6287578940391541e-01</leafValues></_>
        <_>
          <internalNodes>
            0 -1 150 5.1405571866780519e-04</internalNodes>
          <leafValues>
            8.0657906830310822e-02 -4.4887825846672058e-01</leafValues></_>
        <_>
          <internalNodes>
            0 -1 35 -6.5686060115695000e-03</internalNodes>
          <leafValues>
            4.5290386676788330e-01 -8.2794345915317535e-02</leafValues></_>
        <_>
          <internalNodes>
            0 -1 24 4.9540242180228233e-03</internalNodes>
          <leafValues>
            6.4241454005241394e-02 -4.5651033520698547e-01</leafValues></_>
        <_>
          <internalNodes>
            0 -1 78 -1.1170526593923569e-01</internalNodes>
          <leafValues>
            3.4213289618492126e-01 -7.9208798706531525e-02</leafValues></_>
        <_>
          <internalNodes>
            0 -1 68 5.2530638873577118e-02</internalNodes>
          <leafValues>
            -1.4118894934654236e-01 2.6331332325935364e-01</leafValues></_>
        <_>
          <internalNodes>
            0 -1 211 3.7073917686939240e-02</internalNodes>
          <leafValues>
            -9.9817268550395966e-02 3.1241065263748169e-01</leafValues></_>
        <_>
          <internalNodes>
            0 -1 253 -2.5134280323982239e-02</internalNodes>
          <leafValues>
            4.8528093099594116e-01 -6.5159842371940613e-02</leafValues></_>
        <_>
          <internalNodes>
            0 -1 294 -4.0126782841980457e-03</internalNodes>
          <leafValues>
            -7.6378279924392700e-01 4.4242396950721741e-02</leafValues></_>
        <_>
          <internalNodes>
            0 -1 172 4.8823503311723471e-04</internalNodes>
          <leafValues>
            6.5492801368236542e-02 -3.9391744136810303e-01</leafValues></_>
        <_>
          <internalNodes>
            0 -1 117 -2.1282674744725227e-02</internalNodes>
          <leafValues>
            5.3457498550415039e-01 -5.7119093835353851e-02</leafValues></_>
        <_>
          <internalNodes>
            0 -1 8 1.1703548952937126e-02</internalNodes>
          <leafValues>
            5.7564165443181992e-02 -5.3442740440368652e-01</leafValues></_>
        <_>
          <internalNodes>
            0 -1 11 -2.6036642491817474e-02</internalNodes>
          <leafValues>
            -6.9638866186141968e-01 3.2342012971639633e-02</leafValues></_>
        <_>
          <internalNodes>
            0 -1 65 -1.4587303157895803e-03</internalNodes>
          <leafValues>
            1.1773570626974106e-01 -2.3800344765186310e-01</leafValues></_>
        <_>
          <internalNodes>
            0 -1 89 -1.1184629984200001e-02</internalNodes>
          <leafValues>
            -8.3334922790527344e-01 2.4876298382878304e-02</leafValues></_>
        <_>
          <internalNodes>
            0 -1 260 1.4566138852387667e-03</internalNodes>
          <leafValues>
            -8.8932514190673828e-02 3.3589050173759460e-01</leafValues></_>
        <_>
          <internalNodes>
            0 -1 166 4.6155869495123625e-04</internalNodes>
          <leafValues>
            8.3444319665431976e-02 -3.4523615241050720e-01</leafValues></_>
        <_>
          <internalNodes>
            0 -1 53 -3.0043357983231544e-02</internalNodes>
          <leafValues>
            4.2365372180938721e-01 -6.5220482647418976e-02</leafValues></_>
        <_>
          <internalNodes>
            0 -1 221 -3.1868748366832733e-02</internalNodes>
          <leafValues>
            2.3400096595287323e-01 -1.2199333310127258e-01</leafValues></_>
        <_>
          <internalNodes>
            0 -1 234 3.0934237875044346e-03</internalNodes>
          <leafValues>
            -1.4554001390933990e-01 2.1581344306468964e-01</leafValues></_>
        <_>
          <internalNodes>
            0 -1 179 2.2101486101746559e-03</internalNodes>
          <leafValues>
            8.6093142628669739e-02 -3.7443974614143372e-01</leafValues></_>
        <_>
          <internalNodes>
            0 -1 52 3.5300120711326599e-02</internalNodes>
          <leafValues>
            -9.8470017313957214e-02 2.8916934132575989e-01</leafValues></_>
        <_>
          <internalNodes>
            0 -1 29 -2.7735583484172821e-02</internalNodes>
          <leafValues>
            2.2275146842002869e-01 -1.2939538061618805e-01</leafValues></_>
        <_>
          <internalNodes>
            0 -1 215 -4.0121376514434814e-02</internalNodes>
          <leafValues>
            4.5487394928932190e-01 -6.3957817852497101e-02</leafValues></_>
        <_>
          <internalNodes>
            0 -1 12 -5.1192438602447510e-01</internalNodes>
          <leafValues>
            -7.1886706352233887e-01 4.0973607450723648e-02</leafValues></_>
        <_>
          <internalNodes>
            0 -1 98 4.5969389379024506e-02</internalNodes>
          <leafValues>
            3.8053520023822784e-02 -5.7655793428421021e-01</leafValues></_>
        <_>
          <internalNodes>
            0 -1 27 2.5157146155834198e-02</internalNodes>
          <leafValues>
            3.4630566835403442e-02 -6.6309010982513428e-01</leafValues></_>
        <_>
          <internalNodes>
            0 -1 128 -6.4503040630370378e-04</internalNodes>
          <leafValues>
            -4.0049692988395691e-01 6.0080960392951965e-02</leafValues></_>
        <_>
          <internalNodes>
            0 -1 206 5.7250674813985825e-02</internalNodes>
          <leafValues>
            -4.4463541358709335e-02 6.5138638019561768e-01</leafValues></_>
        <_>
          <internalNodes>
            0 -1 94 -1.2590533494949341e-01</internalNodes>
          <leafValues>
            3.8553673774003983e-02 -8.0636310577392578e-01</leafValues></_>
        <_>
          <internalNodes>
            0 -1 102 -1.0094606876373291e-01</internalNodes>
          <leafValues>
            -4.5201724767684937e-01 5.4857414215803146e-02</leafValues></_>
        <_>
          <internalNodes>
            0 -1 269 1.2910915538668633e-02</internalNodes>
          <leafValues>
            -9.7564764320850372e-02 3.0759805440902710e-01</leafValues></_>
        <_>
          <internalNodes>
            0 -1 262 1.9293110817670822e-03</internalNodes>
          <leafValues>
            7.4877053499221802e-02 -4.0977099537849426e-01</leafValues></_>
        <_>
          <internalNodes>
            0 -1 136 -3.0045438557863235e-02</internalNodes>
          <leafValues>
            6.5612047910690308e-01 -4.8690319061279297e-02</leafValues></_>
        <_>
          <internalNodes>
            0 -1 159 -7.8830365091562271e-03</internalNodes>
          <leafValues>
            3.6448612809181213e-01 -7.1999102830886841e-02</leafValues></_></weakClassifiers></_></stages>
  <features>
    <_>
      <rects>
        <_>
          0 0 1 2 -1.</_>
        <_>
          0 1 1 1 2.</_></rects>
      <tilted>0</tilted></_>
    <_>
      <rects>
        <_>
          0 0 1 6 -1.</_>
        <_>
          0 3 1 3 2.</_></rects>
      <tilted>0</tilted></_>
    <_>
      <rects>
        <_>
          0 0 1 20 -1.</_>
        <_>
          0 10 1 10 2.</_></rects>
      <tilted>0</tilted></_>
    <_>
      <rects>
        <_>
          0 0 1 24 -1.</_>
        <_>
          0 12 1 12 2.</_></rects>
      <tilted>0</tilted></_>
    <_>
      <rects>
        <_>
          0 0 2 22 -1.</_>
        <_>
          0 11 2 11 2.</_></rects>
      <tilted>0</tilted></_>
    <_>
      <rects>
        <_>
          0 0 6 1 -1.</_>
        <_>
          3 0 3 1 2.</_></rects>
      <tilted>0</tilted></_>
    <_>
      <rects>
        <_>
          0 0 8 2 -1.</_>
        <_>
          4 0 4 2 2.</_></rects>
      <tilted>0</tilted></_>
    <_>
      <rects>
        <_>
          0 0 12 1 -1.</_>
        <_>
          6 0 6 1 2.</_></rects>
      <tilted>0</tilted></_>
    <_>
      <rects>
        <_>
          0 0 16 1 -1.</_>
        <_>
          8 0 8 1 2.</_></rects>
      <tilted>0</tilted></_>
    <_>
      <rects>
        <_>
          0 0 20 1 -1.</_>
        <_>
          10 0 10 1 2.</_></rects>
      <tilted>0</tilted></_>
    <_>
      <rects>
        <_>
          0 0 22 24 -1.</_>
        <_>
          11 0 11 24 2.</_></rects>
      <tilted>0</tilted></_>
    <_>
      <rects>
        <_>
          0 0 24 1 -1.</_>
        <_>
          12 0 12 1 2.</_></rects>
      <tilted>0</tilted></_>
    <_>
      <rects>
        <_>
          0 0 24 21 -1.</_>
        <_>
          12 0 12 21 2.</_></rects>
      <tilted>0</tilted></_>
    <_>
      <rects>
        <_>
          0 0 24 23 -1.</_>
        <_>
          12 0 12 23 2.</_></rects>
      <tilted>0</tilted></_>
    <_>
      <rects>
        <_>
          0 0 23 4 -1.</_>
        <_>
          0 2 23 2 2.</_></rects>
      <tilted>0</tilted></_>
    <_>
      <rects>
        <_>
          0 0 24 2 -1.</_>
        <_>
          0 1 24 1 2.</_></rects>
      <tilted>0</tilted></_>
    <_>
      <rects>
        <_>
          0 0 24 24 -1.</_>
        <_>
          0 12 24 12 2.</_></rects>
      <tilted>0</tilted></_>
    <_>
      <rects>
        <_>
          0 1 1 18 -1.</_>
        <_>
          0 10 1 9 2.</_></rects>
      <tilted>0</tilted></_>
    <_>
      <rects>
        <_>
          0 2 1 22 -1.</_>
        <_>
          0 13 1 11 2.</_></rects>
      <tilted>0</tilted></_>
    <_>
      <rects>
        <_>
          0 2 2 21 -1.</_>
        <_>
          1 2 1 21 2.</_></rects>
      <tilted>0</tilted></_>
    <_>
      <rects>
        <_>
          0 2 11 10 -1.</_>
        <_>
          0 7 11 5 2.</_></rects>
      <tilted>0</tilted></_>
    <_>
      <rects>
        <_>
          0 3 2 19 -1.</_>
        <_>
          1 3 1 19 2.</_></rects>
      <tilted>0</tilted></_>
    <_>
      <rects>
        <_>
          0 4 1 2 -1.</_>
        <_>
          0 5 1 1 2.</_></rects>
      <tilted>0</tilted></_>
    <_>
      <rects>
        <_>
          0 4 1 4 -1.</_>
        <_>
          0 6 1 2 2.</_></rects>
      <tilted>0</tilted></_>
    <_>
      <rects>
        <_>
          0 4 1 8 -1.</_>
        <_>
          0 8 1 4 2.</_></rects>
      <tilted>0</tilted></_>
    <_>
      <rects>
        <_>
          0 4 24 20 -1.</_>
        <_>
          12 4 12 20 2.</_></rects>
      <tilted>0</tilted></_>
    <_>
      <rects>
        <_>
          0 5 9 14 -1.</_>
        <_>
          0 12 9 7 2.</_></rects>
      <tilted>0</tilted></_>
    <_>
      <rects>
        <_>
          0 6 1 18 -1.</_>
        <_>
          0 15 1 9 2.</_></rects>
      <tilted>0</tilted></_>
    <_>
      <rects>
        <_>
          0 6 6 14 -1.</_>
        <_>
          0 6 3 7 2.</_>
        <_>
          3 13 3 7 2.</_></rects>
      <tilted>0</tilted></_>
    <_>
      <rects>
        <_>
          0 6 12 8 -1.</_>
        <_>
          6 6 6 8 2.</_></rects>
      <tilted>0</tilted></_>
    <_>
      <rects>
        <_>
          0 7 3 14 -1.</_>
        <_>
          1 7 1 14 2.</_></rects>
      <tilted>0</tilted></_>
    <_>
      <rects>
        <_>
          0 8 3 1 -1.</_>
        <_>
          1 8 1 1 2.</_></rects>
      <tilted>0</tilted></_>
    <_>
      <rects>
        <_>
          0 10 1 2 -1.</_>
        <_>
          0 11 1 1 2.</_></rects>
      <tilted>0</tilted></_>
    <_>
      <rects>
        <_>
          0 11 24 13 -1.</_>
        <_>
          12 11 12 13 2.</_></rects>
      <tilted>0</tilted></_>
    <_>
      <rects>
        <_>
          0 12 6 5 -1.</_>
        <_>
          3 12 3 5 2.</_></rects>
      <tilted>0</tilted></_>
    <_>
      <rects>
        <_>
          0 13 2 10 -1.</_>
        <_>
          1 13 1 10 2.</_></rects>
      <tilted>0</tilted></_>
    <_>
      <rects>
        <_>
          0 14 2 2 -1.</_>
        <_>
          1 14 1 2 2.</_></rects>
      <tilted>0</tilted></_>
    <_>
      <rects>
        <_>
          0 18 1 4 -1.</_>
        <_>
          0 20 1 2 2.</_></rects>
      <tilted>0</tilted></_>
    <_>
      <rects>
        <_>
          0 19 10 4 -1.</_>
        <_>
          5 19 5 4 2.</_></rects>
      <tilted>0</tilted></_>
    <_>
      <rects>
        <_>
          0 20 20 4 -1.</_>
        <_>
          0 22 20 2 2.</_></rects>
      <tilted>0</tilted></_>
    <_>
      <rects>
        <_>
          0 22 23 2 -1.</_>
        <_>
          0 23 23 1 2.</_></rects>
      <tilted>0</tilted></_>
    <_>
      <rects>
        <_>
          0 23 24 1 -1.</_>
        <_>
          12 23 12 1 2.</_></rects>
      <tilted>0</tilted></_>
    <_>
      <rects>
        <_>
          1 0 1 2 -1.</_>
        <_>
          1 1 1 1 2.</_></rects>
      <tilted>0</tilted></_>
    <_>
      <rects>
        <_>
          1 0 4 1 -1.</_>
        <_>
          3 0 2 1 2.</_></rects>
      <tilted>0</tilted></_>
    <_>
      <rects>
        <_>
          1 0 8 1 -1.</_>
        <_>
          5 0 4 1 2.</_></rects>
      <tilted>0</tilted></_>
    <_>
      <rects>
        <_>
          1 0 14 1 -1.</_>
        <_>
          8 0 7 1 2.</_></rects>
      <tilted>0</tilted></_>
    <_>
      <rects>
        <_>
          1 0 18 2 -1.</_>
        <_>
          1 0 9 1 2.</_>
        <_>
          10 1 9 1 2.</_></rects>
      <tilted>0</tilted></_>
    <_>
      <rects>
        <_>
          1 0 22 1 -1.</_>
        <_>
          12 0 11 1 2.</_></rects>
      <tilted>0</tilted></_>
    <_>
      <rects>
        <_>
          1 0 16 10 -1.</_>
        <_>
          1 5 16 5 2.</_></rects>
      <tilted>0</tilted></_>
    <_>
      <rects>
        <_>
          1 1 16 10 -1.</_>
        <_>
          1 1 8 5 2.</_>
        <_>
          9 6 8 5 2.</_></rects>
      <tilted>0</tilted></_>
    <_>
      <rects>
        <_>
          1 1 16 14 -1.</_>
        <_>
          1 1 8 7 2.</_>
        <_>
          9 8 8 7 2.</_></rects>
      <tilted>0</tilted></_>
    <_>
      <rects>
        <_>
          1 2 11 2 -1.</_>
        <_>
          1 3 11 1 2.</_></rects>
      <tilted>0</tilted></_>
    <_>
      <rects>
        <_>
          1 4 8 12 -1.</_>
        <_>
          5 4 4 12 2.</_></rects>
      <tilted>0</tilted></_>
    <_>
      <rects>
        <_>
          1 6 4 15 -1.</_>
        <_>
          3 6 2 15 2.</_></rects>
      <tilted>0</tilted></_>
    <_>
      <rects>
        <_>
          1 7 2 1 -1.</_>
        <_>
          2 7 1 1 2.</_></rects>
      <tilted>0</tilted></_>
    <_>
      <rects>
        <_>
          1 8 6 5 -1.</_>
        <_>
          4 8 3 5 2.</_></rects>
      <tilted>0</tilted></_>
    <_>
      <rects>
        <_>
          1 13 1 3 -1.</_>
        <_>
          1 14 1 1 2.</_></rects>
      <tilted>0</tilted></_>
    <_>
      <rects>
        <_>
          1 13 10 6 -1.</_>
        <_>
          6 13 5 6 2.</_></rects>
      <tilted>0</tilted></_>
    <_>
      <rects>
        <_>
          1 14 8 2 -1.</_>
        <_>
          5 14 4 2 2.</_></rects>
      <tilted>0</tilted></_>
    <_>
      <rects>
        <_>
          1 16 18 8 -1.</_>
        <_>
          10 16 9 8 2.</_></rects>
      <tilted>0</tilted></_>
    <_>
      <rects>
        <_>
          1 22 19 2 -1.</_>
        <_>
          1 23 19 1 2.</_></rects>
      <tilted>0</tilted></_>
    <_>
      <rects>
        <_>
          1 22 20 2 -1.</_>
        <_>
          1 23 20 1 2.</_></rects>
      <tilted>0</tilted></_>
    <_>
      <rects>
        <_>
          2 0 2 1 -1.</_>
        <_>
          3 0 1 1 2.</_></rects>
      <tilted>0</tilted></_>
    <_>
      <rects>
        <_>
          2 0 22 1 -1.</_>
        <_>
          13 0 11 1 2.</_></rects>
      <tilted>0</tilted></_>
    <_>
      <rects>
        <_>
          2 0 19 2 -1.</_>
        <_>
          2 1 19 1 2.</_></rects>
      <tilted>0</tilted></_>
    <_>
      <rects>
        <_>
          2 0 20 2 -1.</_>
        <_>
          2 1 20 1 2.</_></rects>
      <tilted>0</tilted></_>
    <_>
      <rects>
        <_>
          2 0 21 2 -1.</_>
        <_>
          2 1 21 1 2.</_></rects>
      <tilted>0</tilted></_>
    <_>
      <rects>
        <_>
          2 0 22 12 -1.</_>
        <_>
          2 6 22 6 2.</_></rects>
      <tilted>0</tilted></_>
    <_>
      <rects>
        <_>
          2 1 14 14 -1.</_>
        <_>
          2 1 7 7 2.</_>
        <_>
          9 8 7 7 2.</_></rects>
      <tilted>0</tilted></_>
    <_>
      <rects>
        <_>
          2 1 20 2 -1.</_>
        <_>
          2 2 20 1 2.</_></rects>
      <tilted>0</tilted></_>
    <_>
      <rects>
        <_>
          2 9 5 2 -1.</_>
        <_>
          2 10 5 1 2.</_></rects>
      <tilted>0</tilted></_>
    <_>
      <rects>
        <_>
          2 12 4 6 -1.</_>
        <_>
          2 12 2 3 2.</_>
        <_>
          4 15 2 3 2.</_></rects>
      <tilted>0</tilted></_>
    <_>
      <rects>
        <_>
          2 12 8 12 -1.</_>
        <_>
          2 16 8 4 2.</_></rects>
      <tilted>0</tilted></_>
    <_>
      <rects>
        <_>
          2 22 18 2 -1.</_>
        <_>
          11 22 9 2 2.</_></rects>
      <tilted>0</tilted></_>
    <_>
      <rects>
        <_>
          2 23 4 1 -1.</_>
        <_>
          4 23 2 1 2.</_></rects>
      <tilted>0</tilted></_>
    <_>
      <rects>
        <_>
          2 23 22 1 -1.</_>
        <_>
          13 23 11 1 2.</_></rects>
      <tilted>0</tilted></_>
    <_>
      <rects>
        <_>
          3 0 3 1 -1.</_>
        <_>
          4 0 1 1 2.</_></rects>
      <tilted>0</tilted></_>
    <_>
      <rects>
        <_>
          3 0 10 1 -1.</_>
        <_>
          8 0 5 1 2.</_></rects>
      <tilted>0</tilted></_>
    <_>
      <rects>
        <_>
          3 0 18 14 -1.</_>
        <_>
          3 0 9 7 2.</_>
        <_>
          12 7 9 7 2.</_></rects>
      <tilted>0</tilted></_>
    <_>
      <rects>
        <_>
          3 0 17 2 -1.</_>
        <_>
          3 1 17 1 2.</_></rects>
      <tilted>0</tilted></_>
    <_>
      <rects>
        <_>
          3 0 21 24 -1.</_>
        <_>
          3 12 21 12 2.</_></rects>
      <tilted>0</tilted></_>
    <_>
      <rects>
        <_>
          3 1 16 10 -1.</_>
        <_>
          3 1 8 5 2.</_>
        <_>
          11 6 8 5 2.</_></rects>
      <tilted>0</tilted></_>
    <_>
      <rects>
        <_>
          3 1 18 10 -1.</_>
        <_>
          3 1 9 5 2.</_>
        <_>
          12 6 9 5 2.</_></rects>
      <tilted>0</tilted></_>
    <_>
      <rects>
        <_>
          3 3 8 4 -1.</_>
        <_>
          3 3 4 2 2.</_>
        <_>
          7 5 4 2 2.</_></rects>
      <tilted>0</tilted></_>
    <_>
      <rects>
        <_>
          3 3 16 6 -1.</_>
        <_>
          3 3 8 3 2.</_>
        <_>
          11 6 8 3 2.</_></rects>
      <tilted>0</tilted></_>
    <_>
      <rects>
        <_>
          3 3 15 4 -1.</_>
        <_>
          3 5 15 2 2.</_></rects>
      <tilted>0</tilted></_>
    <_>
      <rects>
        <_>
          3 13 16 9 -1.</_>
        <_>
          3 16 16 3 2.</_></rects>
      <tilted>0</tilted></_>
    <_>
      <rects>
        <_>
          3 14 10 6 -1.</_>
        <_>
          8 14 5 6 2.</_></rects>
      <tilted>0</tilted></_>
    <_>
      <rects>
        <_>
          3 22 18 2 -1.</_>
        <_>
          3 23 18 1 2.</_></rects>
      <tilted>0</tilted></_>
    <_>
      <rects>
        <_>
          3 23 3 1 -1.</_>
        <_>
          4 23 1 1 2.</_></rects>
      <tilted>0</tilted></_>
    <_>
      <rects>
        <_>
          4 0 4 1 -1.</_>
        <_>
          6 0 2 1 2.</_></rects>
      <tilted>0</tilted></_>
    <_>
      <rects>
        <_>
          4 0 12 4 -1.</_>
        <_>
          4 0 6 2 2.</_>
        <_>
          10 2 6 2 2.</_></rects>
      <tilted>0</tilted></_>
    <_>
      <rects>
        <_>
          4 0 20 1 -1.</_>
        <_>
          14 0 10 1 2.</_></rects>
      <tilted>0</tilted></_>
    <_>
      <rects>
        <_>
          4 0 14 2 -1.</_>
        <_>
          4 1 14 1 2.</_></rects>
      <tilted>0</tilted></_>
    <_>
      <rects>
        <_>
          4 0 19 9 -1.</_>
        <_>
          4 3 19 3 2.</_></rects>
      <tilted>0</tilted></_>
    <_>
      <rects>
        <_>
          4 1 16 10 -1.</_>
        <_>
          4 6 16 5 2.</_></rects>
      <tilted>0</tilted></_>
    <_>
      <rects>
        <_>
          4 2 14 2 -1.</_>
        <_>
          4 2 7 1 2.</_>
        <_>
          11 3 7 1 2.</_></rects>
      <tilted>0</tilted></_>
    <_>
      <rects>
        <_>
          4 2 15 8 -1.</_>
        <_>
          4 6 15 4 2.</_></rects>
      <tilted>0</tilted></_>
    <_>
      <rects>
        <_>
          4 22 20 2 -1.</_>
        <_>
          14 22 10 2 2.</_></rects>
      <tilted>0</tilted></_>
    <_>
      <rects>
        <_>
          4 23 2 1 -1.</_>
        <_>
          5 23 1 1 2.</_></rects>
      <tilted>0</tilted></_>
    <_>
      <rects>
        <_>
          5 0 2 1 -1.</_>
        <_>
          6 0 1 1 2.</_></rects>
      <tilted>0</tilted></_>
    <_>
      <rects>
        <_>
          5 0 3 1 -1.</_>
        <_>
          6 0 1 1 2.</_></rects>
      <tilted>0</tilted></_>
    <_>
      <rects>
        <_>
          5 0 3 12 -1.</_>
        <_>
          5 4 3 4 2.</_></rects>
      <tilted>0</tilted></_>
    <_>
      <rects>
        <_>
          5 0 13 2 -1.</_>
        <_>
          5 1 13 1 2.</_></rects>
      <tilted>0</tilted></_>
    <_>
      <rects>
        <_>
          5 0 14 2 -1.</_>
        <_>
          5 1 14 1 2.</_></rects>
      <tilted>0</tilted></_>
    <_>
      <rects>
        <_>
          5 0 16 2 -1.</_>
        <_>
          5 1 16 1 2.</_></rects>
      <tilted>0</tilted></_>
    <_>
      <rects>
        <_>
          5 7 18 14 -1.</_>
        <_>
          5 7 9 7 2.</_>
        <_>
          14 14 9 7 2.</_></rects>
      <tilted>0</tilted></_>
    <_>
      <rects>
        <_>
          5 12 12 12 -1.</_>
        <_>
          5 18 12 6 2.</_></rects>
      <tilted>0</tilted></_>
    <_>
      <rects>
        <_>
          5 12 18 12 -1.</_>
        <_>
          5 18 18 6 2.</_></rects>
      <tilted>0</tilted></_>
    <_>
      <rects>
        <_>
          5 22 6 2 -1.</_>
        <_>
          5 23 6 1 2.</_></rects>
      <tilted>0</tilted></_>
    <_>
      <rects>
        <_>
          5 23 8 1 -1.</_>
        <_>
          9 23 4 1 2.</_></rects>
      <tilted>0</tilted></_>
    <_>
      <rects>
        <_>
          6 0 18 1 -1.</_>
        <_>
          15 0 9 1 2.</_></rects>
      <tilted>0</tilted></_>
    <_>
      <rects>
        <_>
          6 0 18 18 -1.</_>
        <_>
          6 0 9 9 2.</_>
        <_>
          15 9 9 9 2.</_></rects>
      <tilted>0</tilted></_>
    <_>
      <rects>
        <_>
          6 0 11 2 -1.</_>
        <_>
          6 1 11 1 2.</_></rects>
      <tilted>0</tilted></_>
    <_>
      <rects>
        <_>
          6 1 10 6 -1.</_>
        <_>
          6 1 5 3 2.</_>
        <_>
          11 4 5 3 2.</_></rects>
      <tilted>0</tilted></_>
    <_>
      <rects>
        <_>
          6 1 18 10 -1.</_>
        <_>
          6 1 9 5 2.</_>
        <_>
          15 6 9 5 2.</_></rects>
      <tilted>0</tilted></_>
    <_>
      <rects>
        <_>
          6 2 4 14 -1.</_>
        <_>
          6 9 4 7 2.</_></rects>
      <tilted>0</tilted></_>
    <_>
      <rects>
        <_>
          6 3 6 6 -1.</_>
        <_>
          6 3 3 3 2.</_>
        <_>
          9 6 3 3 2.</_></rects>
      <tilted>0</tilted></_>
    <_>
      <rects>
        <_>
          6 3 10 4 -1.</_>
        <_>
          6 3 5 2 2.</_>
        <_>
          11 5 5 2 2.</_></rects>
      <tilted>0</tilted></_>
    <_>
      <rects>
        <_>
          6 6 10 4 -1.</_>
        <_>
          6 6 5 2 2.</_>
        <_>
          11 8 5 2 2.</_></rects>
      <tilted>0</tilted></_>
    <_>
      <rects>
        <_>
          6 12 4 12 -1.</_>
        <_>
          6 18 4 6 2.</_></rects>
      <tilted>0</tilted></_>
    <_>
      <rects>
        <_>
          6 22 14 2 -1.</_>
        <_>
          6 23 14 1 2.</_></rects>
      <tilted>0</tilted></_>
    <_>
      <rects>
        <_>
          6 23 6 1 -1.</_>
        <_>
          8 23 2 1 2.</_></rects>
      <tilted>0</tilted></_>
    <_>
      <rects>
        <_>
          7 1 9 12 -1.</_>
        <_>
          7 7 9 6 2.</_></rects>
      <tilted>0</tilted></_>
    <_>
      <rects>
        <_>
          7 2 10 10 -1.</_>
        <_>
          7 7 10 5 2.</_></rects>
      <tilted>0</tilted></_>
    <_>
      <rects>
        <_>
          7 3 5 16 -1.</_>
        <_>
          7 11 5 8 2.</_></rects>
      <tilted>0</tilted></_>
    <_>
      <rects>
        <_>
          7 3 16 10 -1.</_>
        <_>
          7 3 8 5 2.</_>
        <_>
          15 8 8 5 2.</_></rects>
      <tilted>0</tilted></_>
    <_>
      <rects>
        <_>
          7 5 8 2 -1.</_>
        <_>
          7 5 4 1 2.</_>
        <_>
          11 6 4 1 2.</_></rects>
      <tilted>0</tilted></_>
    <_>
      <rects>
        <_>
          7 8 1 2 -1.</_>
        <_>
          7 9 1 1 2.</_></rects>
      <tilted>0</tilted></_>
    <_>
      <rects>
        <_>
          7 12 2 2 -1.</_>
        <_>
          7 12 1 1 2.</_>
        <_>
          8 13 1 1 2.</_></rects>
      <tilted>0</tilted></_>
    <_>
      <rects>
        <_>
          7 12 3 12 -1.</_>
        <_>
          7 18 3 6 2.</_></rects>
      <tilted>0</tilted></_>
    <_>
      <rects>
        <_>
          7 13 2 1 -1.</_>
        <_>
          8 13 1 1 2.</_></rects>
      <tilted>0</tilted></_>
    <_>
      <rects>
        <_>
          7 15 8 8 -1.</_>
        <_>
          7 19 8 4 2.</_></rects>
      <tilted>0</tilted></_>
    <_>
      <rects>
        <_>
          7 20 10 2 -1.</_>
        <_>
          7 20 5 1 2.</_>
        <_>
          12 21 5 1 2.</_></rects>
      <tilted>0</tilted></_>
    <_>
      <rects>
        <_>
          7 23 6 1 -1.</_>
        <_>
          10 23 3 1 2.</_></rects>
      <tilted>0</tilted></_>
    <_>
      <rects>
        <_>
          8 0 8 4 -1.</_>
        <_>
          8 2 8 2 2.</_></rects>
      <tilted>0</tilted></_>
    <_>
      <rects>
        <_>
          8 1 10 2 -1.</_>
        <_>
          13 1 5 2 2.</_></rects>
      <tilted>0</tilted></_>
    <_>
      <rects>
        <_>
          8 2 14 6 -1.</_>
        <_>
          8 2 7 3 2.</_>
        <_>
          15 5 7 3 2.</_></rects>
      <tilted>0</tilted></_>
    <_>
      <rects>
        <_>
          8 2 14 12 -1.</_>
        <_>
          8 2 7 6 2.</_>
        <_>
          15 8 7 6 2.</_></rects>
      <tilted>0</tilted></_>
    <_>
      <rects>
        <_>
          8 2 10 4 -1.</_>
        <_>
          8 4 10 2 2.</_></rects>
      <tilted>0</tilted></_>
    <_>
      <rects>
        <_>
          8 2 10 6 -1.</_>
        <_>
          8 5 10 3 2.</_></rects>
      <tilted>0</tilted></_>
    <_>
      <rects>
        <_>
          8 3 2 2 -1.</_>
        <_>
          8 3 1 1 2.</_>
        <_>
          9 4 1 1 2.</_></rects>
      <tilted>0</tilted></_>
    <_>
      <rects>
        <_>
          8 3 4 2 -1.</_>
        <_>
          8 4 4 1 2.</_></rects>
      <tilted>0</tilted></_>
    <_>
      <rects>
        <_>
          8 3 10 10 -1.</_>
        <_>
          8 8 10 5 2.</_></rects>
      <tilted>0</tilted></_>
    <_>
      <rects>
        <_>
          8 5 10 2 -1.</_>
        <_>
          13 5 5 2 2.</_></rects>
      <tilted>0</tilted></_>
    <_>
      <rects>
        <_>
          8 6 3 3 -1.</_>
        <_>
          8 7 3 1 2.</_></rects>
      <tilted>0</tilted></_>
    <_>
      <rects>
        <_>
          8 7 16 6 -1.</_>
        <_>
          8 7 8 3 2.</_>
        <_>
          16 10 8 3 2.</_></rects>
      <tilted>0</tilted></_>
    <_>
      <rects>
        <_>
          8 10 2 1 -1.</_>
        <_>
          9 10 1 1 2.</_></rects>
      <tilted>0</tilted></_>
    <_>
      <rects>
        <_>
          8 10 14 10 -1.</_>
        <_>
          8 10 7 5 2.</_>
        <_>
          15 15 7 5 2.</_></rects>
      <tilted>0</tilted></_>
    <_>
      <rects>
        <_>
          8 13 1 2 -1.</_>
        <_>
          8 14 1 1 2.</_></rects>
      <tilted>0</tilted></_>
    <_>
      <rects>
        <_>
          8 14 1 2 -1.</_>
        <_>
          8 15 1 1 2.</_></rects>
      <tilted>0</tilted></_>
    <_>
      <rects>
        <_>
          8 17 14 4 -1.</_>
        <_>
          8 19 14 2 2.</_></rects>
      <tilted>0</tilted></_>
    <_>
      <rects>
        <_>
          8 19 14 2 -1.</_>
        <_>
          15 19 7 2 2.</_></rects>
      <tilted>0</tilted></_>
    <_>
      <rects>
        <_>
          8 23 16 1 -1.</_>
        <_>
          16 23 8 1 2.</_></rects>
      <tilted>0</tilted></_>
    <_>
      <rects>
        <_>
          9 0 4 8 -1.</_>
        <_>
          9 4 4 4 2.</_></rects>
      <tilted>0</tilted></_>
    <_>
      <rects>
        <_>
          9 0 15 4 -1.</_>
        <_>
          9 2 15 2 2.</_></rects>
      <tilted>0</tilted></_>
    <_>
      <rects>
        <_>
          9 1 8 6 -1.</_>
        <_>
          9 1 4 3 2.</_>
        <_>
          13 4 4 3 2.</_></rects>
      <tilted>0</tilted></_>
    <_>
      <rects>
        <_>
          9 1 8 20 -1.</_>
        <_>
          9 11 8 10 2.</_></rects>
      <tilted>0</tilted></_>
    <_>
      <rects>
        <_>
          9 2 12 18 -1.</_>
        <_>
          9 11 12 9 2.</_></rects>
      <tilted>0</tilted></_>
    <_>
      <rects>
        <_>
          9 3 6 4 -1.</_>
        <_>
          9 3 3 2 2.</_>
        <_>
          12 5 3 2 2.</_></rects>
      <tilted>0</tilted></_>
    <_>
      <rects>
        <_>
          9 6 3 1 -1.</_>
        <_>
          10 6 1 1 2.</_></rects>
      <tilted>0</tilted></_>
    <_>
      <rects>
        <_>
          9 10 2 2 -1.</_>
        <_>
          9 10 1 1 2.</_>
        <_>
          10 11 1 1 2.</_></rects>
      <tilted>0</tilted></_>
    <_>
      <rects>
        <_>
          9 14 2 3 -1.</_>
        <_>
          10 14 1 3 2.</_></rects>
      <tilted>0</tilted></_>
    <_>
      <rects>
        <_>
          9 14 5 10 -1.</_>
        <_>
          9 19 5 5 2.</_></rects>
      <tilted>0</tilted></_>
    <_>
      <rects>
        <_>
          9 15 2 1 -1.</_>
        <_>
          10 15 1 1 2.</_></rects>
      <tilted>0</tilted></_>
    <_>
      <rects>
        <_>
          9 16 2 6 -1.</_>
        <_>
          9 19 2 3 2.</_></rects>
      <tilted>0</tilted></_>
    <_>
      <rects>
        <_>
          9 17 2 1 -1.</_>
        <_>
          10 17 1 1 2.</_></rects>
      <tilted>0</tilted></_>
    <_>
      <rects>
        <_>
          9 17 7 6 -1.</_>
        <_>
          9 20 7 3 2.</_></rects>
      <tilted>0</tilted></_>
    <_>
      <rects>
        <_>
          10 1 4 2 -1.</_>
        <_>
          10 1 2 1 2.</_>
        <_>
          12 2 2 1 2.</_></rects>
      <tilted>0</tilted></_>
    <_>
      <rects>
        <_>
          10 1 14 18 -1.</_>
        <_>
          10 1 7 9 2.</_>
        <_>
          17 10 7 9 2.</_></rects>
      <tilted>0</tilted></_>
    <_>
      <rects>
        <_>
          10 2 8 4 -1.</_>
        <_>
          10 4 8 2 2.</_></rects>
      <tilted>0</tilted></_>
    <_>
      <rects>
        <_>
          10 8 2 2 -1.</_>
        <_>
          10 8 1 1 2.</_>
        <_>
          11 9 1 1 2.</_></rects>
      <tilted>0</tilted></_>
    <_>
      <rects>
        <_>
          10 10 1 2 -1.</_>
        <_>
          10 11 1 1 2.</_></rects>
      <tilted>0</tilted></_>
    <_>
      <rects>
        <_>
          10 11 1 2 -1.</_>
        <_>
          10 12 1 1 2.</_></rects>
      <tilted>0</tilted></_>
    <_>
      <rects>
        <_>
          10 11 2 2 -1.</_>
        <_>
          11 11 1 2 2.</_></rects>
      <tilted>0</tilted></_>
    <_>
      <rects>
        <_>
          10 11 4 2 -1.</_>
        <_>
          10 11 2 1 2.</_>
        <_>
          12 12 2 1 2.</_></rects>
      <tilted>0</tilted></_>
    <_>
      <rects>
        <_>
          10 17 1 6 -1.</_>
        <_>
          10 20 1 3 2.</_></rects>
      <tilted>0</tilted></_>
    <_>
      <rects>
        <_>
          10 22 14 2 -1.</_>
        <_>
          17 22 7 2 2.</_></rects>
      <tilted>0</tilted></_>
    <_>
      <rects>
        <_>
          10 23 8 1 -1.</_>
        <_>
          14 23 4 1 2.</_></rects>
      <tilted>0</tilted></_>
    <_>
      <rects>
        <_>
          11 0 6 1 -1.</_>
        <_>
          14 0 3 1 2.</_></rects>
      <tilted>0</tilted></_>
    <_>
      <rects>
        <_>
          11 0 11 24 -1.</_>
        <_>
          11 12 11 12 2.</_></rects>
      <tilted>0</tilted></_>
    <_>
      <rects>
        <_>
          11 0 13 24 -1.</_>
        <_>
          11 12 13 12 2.</_></rects>
      <tilted>0</tilted></_>
    <_>
      <rects>
        <_>
          11 3 6 4 -1.</_>
        <_>
          11 5 6 2 2.</_></rects>
      <tilted>0</tilted></_>
    <_>
      <rects>
        <_>
          11 9 2 1 -1.</_>
        <_>
          12 9 1 1 2.</_></rects>
      <tilted>0</tilted></_>
    <_>
      <rects>
        <_>
          11 9 2 3 -1.</_>
        <_>
          12 9 1 3 2.</_></rects>
      <tilted>0</tilted></_>
    <_>
      <rects>
        <_>
          11 10 2 2 -1.</_>
        <_>
          11 10 1 1 2.</_>
        <_>
          12 11 1 1 2.</_></rects>
      <tilted>0</tilted></_>
    <_>
      <rects>
        <_>
          11 13 2 2 -1.</_>
        <_>
          11 13 1 1 2.</_>
        <_>
          12 14 1 1 2.</_></rects>
      <tilted>0</tilted></_>
    <_>
      <rects>
        <_>
          11 19 3 2 -1.</_>
        <_>
          12 19 1 2 2.</_></rects>
      <tilted>0</tilted></_>
    <_>
      <rects>
        <_>
          12 0 12 1 -1.</_>
        <_>
          18 0 6 1 2.</_></rects>
      <tilted>0</tilted></_>
    <_>
      <rects>
        <_>
          12 0 12 16 -1.</_>
        <_>
          12 0 6 8 2.</_>
        <_>
          18 8 6 8 2.</_></rects>
      <tilted>0</tilted></_>
    <_>
      <rects>
        <_>
          12 3 12 14 -1.</_>
        <_>
          12 3 6 7 2.</_>
        <_>
          18 10 6 7 2.</_></rects>
      <tilted>0</tilted></_>
    <_>
      <rects>
        <_>
          12 4 8 8 -1.</_>
        <_>
          12 4 4 4 2.</_>
        <_>
          16 8 4 4 2.</_></rects>
      <tilted>0</tilted></_>
    <_>
      <rects>
        <_>
          12 4 8 12 -1.</_>
        <_>
          12 4 4 6 2.</_>
        <_>
          16 10 4 6 2.</_></rects>
      <tilted>0</tilted></_>
    <_>
      <rects>
        <_>
          12 4 12 20 -1.</_>
        <_>
          16 4 4 20 2.</_></rects>
      <tilted>0</tilted></_>
    <_>
      <rects>
        <_>
          12 6 3 2 -1.</_>
        <_>
          13 6 1 2 2.</_></rects>
      <tilted>0</tilted></_>
    <_>
      <rects>
        <_>
          12 7 10 8 -1.</_>
        <_>
          17 7 5 8 2.</_></rects>
      <tilted>0</tilted></_>
    <_>
      <rects>
        <_>
          12 10 9 14 -1.</_>
        <_>
          12 17 9 7 2.</_></rects>
      <tilted>0</tilted></_>
    <_>
      <rects>
        <_>
          12 13 2 1 -1.</_>
        <_>
          13 13 1 1 2.</_></rects>
      <tilted>0</tilted></_>
    <_>
      <rects>
        <_>
          12 13 2 2 -1.</_>
        <_>
          12 13 1 1 2.</_>
        <_>
          13 14 1 1 2.</_></rects>
      <tilted>0</tilted></_>
    <_>
      <rects>
        <_>
          12 14 12 1 -1.</_>
        <_>
          18 14 6 1 2.</_></rects>
      <tilted>0</tilted></_>
    <_>
      <rects>
        <_>
          13 0 8 1 -1.</_>
        <_>
          17 0 4 1 2.</_></rects>
      <tilted>0</tilted></_>
    <_>
      <rects>
        <_>
          13 0 6 12 -1.</_>
        <_>
          13 6 6 6 2.</_></rects>
      <tilted>0</tilted></_>
    <_>
      <rects>
        <_>
          13 0 11 24 -1.</_>
        <_>
          13 12 11 12 2.</_></rects>
      <tilted>0</tilted></_>
    <_>
      <rects>
        <_>
          13 1 1 14 -1.</_>
        <_>
          13 8 1 7 2.</_></rects>
      <tilted>0</tilted></_>
    <_>
      <rects>
        <_>
          13 2 10 12 -1.</_>
        <_>
          13 6 10 4 2.</_></rects>
      <tilted>0</tilted></_>
    <_>
      <rects>
        <_>
          13 5 10 13 -1.</_>
        <_>
          18 5 5 13 2.</_></rects>
      <tilted>0</tilted></_>
    <_>
      <rects>
        <_>
          13 7 3 12 -1.</_>
        <_>
          13 13 3 6 2.</_></rects>
      <tilted>0</tilted></_>
    <_>
      <rects>
        <_>
          13 8 2 4 -1.</_>
        <_>
          13 8 1 2 2.</_>
        <_>
          14 10 1 2 2.</_></rects>
      <tilted>0</tilted></_>
    <_>
      <rects>
        <_>
          13 8 10 4 -1.</_>
        <_>
          18 8 5 4 2.</_></rects>
      <tilted>0</tilted></_>
    <_>
      <rects>
        <_>
          13 10 2 2 -1.</_>
        <_>
          13 10 1 1 2.</_>
        <_>
          14 11 1 1 2.</_></rects>
      <tilted>0</tilted></_>
    <_>
      <rects>
        <_>
          13 11 3 3 -1.</_>
        <_>
          13 12 3 1 2.</_></rects>
      <tilted>0</tilted></_>
    <_>
      <rects>
        <_>
          13 12 10 5 -1.</_>
        <_>
          18 12 5 5 2.</_></rects>
      <tilted>0</tilted></_>
    <_>
      <rects>
        <_>
          13 13 2 2 -1.</_>
        <_>
          13 13 1 1 2.</_>
        <_>
          14 14 1 1 2.</_></rects>
      <tilted>0</tilted></_>
    <_>
      <rects>
        <_>
          14 0 8 1 -1.</_>
        <_>
          18 0 4 1 2.</_></rects>
      <tilted>0</tilted></_>
    <_>
      <rects>
        <_>
          14 0 10 1 -1.</_>
        <_>
          19 0 5 1 2.</_></rects>
      <tilted>0</tilted></_>
    <_>
      <rects>
        <_>
          14 1 8 8 -1.</_>
        <_>
          14 1 4 4 2.</_>
        <_>
          18 5 4 4 2.</_></rects>
      <tilted>0</tilted></_>
    <_>
      <rects>
        <_>
