<?xml version="1.0"?>
<opencv_storage>
<stage3>
  <maxWeakCount>24</maxWeakCount>
  <stageThreshold>-1.4158917665481567e+00</stageThreshold>
  <weakClassifiers>
    <_>
      <internalNodes>
        0 -1 132157 -6.5583223477005959e-03</internalNodes>
      <leafValues>
        -4.2551505565643311e-01 3.8036808371543884e-01</leafValues></_>
    <_>
      <internalNodes>
        0 -1 147138 -2.2761063650250435e-02</internalNodes>
      <leafValues>
        5.7069885730743408e-01 -1.5122385323047638e-01</leafValues></_>
    <_>
      <internalNodes>
        0 -1 162119 -3.1579606235027313e-02</internalNodes>
      <leafValues>
        -8.9229571819305420e-01 8.5486933588981628e-02</leafValues></_>
    <_>
      <internalNodes>
        0 -1 134052 -4.2403209954500198e-03</internalNodes>
      <leafValues>
        -5.6174516677856445e-01 1.3283777236938477e-01</leafValues></_>
    <_>
      <internalNodes>
        0 -1 90341 -2.6256252080202103e-02</internalNodes>
      <leafValues>
        6.1999380588531494e-01 -1.3315372169017792e-01</leafValues></_>
    <_>
      <internalNodes>
        0 -1 143186 -1.2774182856082916e-01</internalNodes>
      <leafValues>
        -4.1883051395416260e-01 1.7464329302310944e-01</leafValues></_>
    <_>
      <internalNodes>
        0 -1 148380 3.8262351881712675e-04</internalNodes>
      <leafValues>
        1.8641583621501923e-01 -3.5792192816734314e-01</leafValues></_>
    <_>
      <internalNodes>
        0 -1 161311 1.0187823500018567e-04</internalNodes>
      <leafValues>
        -3.4903708100318909e-01 1.7273738980293274e-01</leafValues></_>
    <_>
      <internalNodes>
        0 -1 91767 6.4427137374877930e-02</internalNodes>
      <leafValues>
        -9.7939357161521912e-02 7.5110477209091187e-01</leafValues></_>
    <_>
      <internalNodes>
        0 -1 95631 -1.2622601934708655e-04</internalNodes>
      <leafValues>
        -3.4357038140296936e-01 1.6853792965412140e-01</leafValues></_>
    <_>
      <internalNodes>
        0 -1 49455 9.6734575927257538e-03</internalNodes>
      <leafValues>
        -1.0025317966938019e-01 5.1004612445831299e-01</leafValues></_>
    <_>
      <internalNodes>
        0 -1 98651 -1.4004018157720566e-02</internalNodes>
      <leafValues>
        -6.2947732210159302e-01 9.2738576233386993e-02</leafValues></_>
    <_>
      <internalNodes>
        0 -1 129 3.3695042133331299e-02</internalNodes>
      <leafValues>
        7.3801979422569275e-02 -5.6999778747558594e-01</leafValues></_>
    <_>
      <internalNodes>
        0 -1 807 4.4193869829177856e-01</internalNodes>
      <leafValues>
        5.4117150604724884e-02 -7.9080641269683838e-01</leafValues></_>
    <_>
      <internalNodes>
        0 -1 162102 -1.6186283901333809e-03</internalNodes>
      <leafValues>
        -5.4015910625457764e-01 7.8337050974369049e-02</leafValues></_>
    <_>
      <internalNodes>
        0 -1 13632 -3.2979575917124748e-04</internalNodes>
      <leafValues>
        -2.5729697942733765e-01 1.8107521533966064e-01</leafValues></_>
    <_>
      <internalNodes>
        0 -1 38927 -3.5294908285140991e-01</internalNodes>
      <leafValues>
        -5.3058540821075439e-01 1.0989425331354141e-01</leafValues></_>
    <_>
      <internalNodes>
        0 -1 60436 2.6108461315743625e-04</internalNodes>
      <leafValues>
        1.1100252717733383e-01 -4.1103285551071167e-01</leafValues></_>
    <_>
      <internalNodes>
        0 -1 161176 -9.6201552078127861e-03</internalNodes>
      <leafValues>
        -5.6951665878295898e-01 7.0373855531215668e-02</leafValues></_>
    <_>
      <internalNodes>
        0 -1 24622 -1.3851408660411835e-01</internalNodes>
      <leafValues>
        -6.0927778482437134e-01 6.9938592612743378e-02</leafValues></_>
    <_>
      <internalNodes>
        0 -1 71858 -2.4756789207458496e-02</internalNodes>
      <leafValues>
        4.5952168107032776e-01 -1.0298573225736618e-01</leafValues></_>
    <_>
      <internalNodes>
        0 -1 114983 2.7928718924522400e-01</internalNodes>
      <leafValues>
        7.7292889356613159e-02 -6.0507142543792725e-01</leafValues></_>
    <_>
      <internalNodes>
        0 -1 162287 -8.4807109087705612e-03</internalNodes>
      <leafValues>
        -6.3263106346130371e-01 7.0179797708988190e-02</leafValues></_>
    <_>
      <internalNodes>
        0 -1 560 1.1031696572899818e-02</internalNodes>
      <leafValues>
        6.4640529453754425e-02 -6.1056154966354370e-01</leafValues></_></weakClassifiers></stage3>
</opencv_storage>
