<?xml version="1.0"?>
<opencv_storage>
<stage11>
  <maxWeakCount>38</maxWeakCount>
  <stageThreshold>-1.2225738763809204e+00</stageThreshold>
  <weakClassifiers>
    <_>
      <internalNodes>
        0 -1 161622 9.2273186892271042e-03</internalNodes>
      <leafValues>
        -4.4979366660118103e-01 4.6337816864252090e-02</leafValues></_>
    <_>
      <internalNodes>
        0 -1 162160 -1.1128887999802828e-03</internalNodes>
      <leafValues>
        -3.4907788038253784e-01 9.9227070808410645e-02</leafValues></_>
    <_>
      <internalNodes>
        0 -1 162128 7.6764356344938278e-03</internalNodes>
      <leafValues>
        6.6560626029968262e-02 -6.0569214820861816e-01</leafValues></_>
    <_>
      <internalNodes>
        0 -1 12534 1.2101237662136555e-03</internalNodes>
      <leafValues>
        1.2854939699172974e-01 -3.6287578940391541e-01</leafValues></_>
    <_>
      <internalNodes>
        0 -1 97098 5.1405571866780519e-04</internalNodes>
      <leafValues>
        8.0657906830310822e-02 -4.4887825846672058e-01</leafValues></_>
    <_>
      <internalNodes>
        0 -1 10591 -6.5686060115695000e-03</internalNodes>
      <leafValues>
        4.5290386676788330e-01 -8.2794345915317535e-02</leafValues></_>
    <_>
      <internalNodes>
        0 -1 4096 4.9540242180228233e-03</internalNodes>
      <leafValues>
        6.4241454005241394e-02 -4.5651033520698547e-01</leafValues></_>
    <_>
      <internalNodes>
        0 -1 38623 -1.1170526593923569e-01</internalNodes>
      <leafValues>
        3.4213289618492126e-01 -7.9208798706531525e-02</leafValues></_>
    <_>
      <internalNodes>
        0 -1 27292 5.2530638873577118e-02</internalNodes>
      <leafValues>
        -1.4118894934654236e-01 2.6331332325935364e-01</leafValues></_>
    <_>
      <internalNodes>
        0 -1 132478 3.7073917686939240e-02</internalNodes>
      <leafValues>
        -9.9817268550395966e-02 3.1241065263748169e-01</leafValues></_>
    <_>
      <internalNodes>
        0 -1 154456 -2.5134280323982239e-02</internalNodes>
      <leafValues>
        4.8528093099594116e-01 -6.5159842371940613e-02</leafValues></_>
    <_>
      <internalNodes>
        0 -1 162324 -4.0126782841980457e-03</internalNodes>
      <leafValues>
        -7.6378279924392700e-01 4.4242396950721741e-02</leafValues></_>
    <_>
      <internalNodes>
        0 -1 111809 4.8823503311723471e-04</internalNodes>
      <leafValues>
        6.5492801368236542e-02 -3.9391744136810303e-01</leafValues></_>
    <_>
      <internalNodes>
        0 -1 73217 -2.1282674744725227e-02</internalNodes>
      <leafValues>
        5.3457498550415039e-01 -5.7119093835353851e-02</leafValues></_>
    <_>
      <internalNodes>
        0 -1 560 1.1703548952937126e-02</internalNodes>
      <leafValues>
        5.7564165443181992e-02 -5.3442740440368652e-01</leafValues></_>
    <_>
      <internalNodes>
        0 -1 808 -2.6036642491817474e-02</internalNodes>
      <leafValues>
        -6.9638866186141968e-01 3.2342012971639633e-02</leafValues></_>
    <_>
      <internalNodes>
        0 -1 26748 -1.4587303157895803e-03</internalNodes>
      <leafValues>
        1.1773570626974106e-01 -2.3800344765186310e-01</leafValues></_>
    <_>
      <internalNodes>
        0 -1 49460 -1.1184629984200001e-02</internalNodes>
      <leafValues>
        -8.3334922790527344e-01 2.4876298382878304e-02</leafValues></_>
    <_>
      <internalNodes>
        0 -1 159012 1.4566138852387667e-03</internalNodes>
      <leafValues>
        -8.8932514190673828e-02 3.3589050173759460e-01</leafValues></_>
    <_>
      <internalNodes>
        0 -1 106095 4.6155869495123625e-04</internalNodes>
      <leafValues>
        8.3444319665431976e-02 -3.4523615241050720e-01</leafValues></_>
    <_>
      <internalNodes>
        0 -1 18911 -3.0043357983231544e-02</internalNodes>
      <leafValues>
        4.2365372180938721e-01 -6.5220482647418976e-02</leafValues></_>
    <_>
      <internalNodes>
        0 -1 136678 -3.1868748366832733e-02</internalNodes>
      <leafValues>
        2.3400096595287323e-01 -1.2199333310127258e-01</leafValues></_>
    <_>
      <internalNodes>
        0 -1 144875 3.0934237875044346e-03</internalNodes>
      <leafValues>
        -1.4554001390933990e-01 2.1581344306468964e-01</leafValues></_>
    <_>
      <internalNodes>
        0 -1 114572 2.2101486101746559e-03</internalNodes>
      <leafValues>
        8.6093142628669739e-02 -3.7443974614143372e-01</leafValues></_>
    <_>
      <internalNodes>
        0 -1 17421 3.5300120711326599e-02</internalNodes>
      <leafValues>
        -9.8470017313957214e-02 2.8916934132575989e-01</leafValues></_>
    <_>
      <internalNodes>
        0 -1 6166 -2.7735583484172821e-02</internalNodes>
      <leafValues>
        2.2275146842002869e-01 -1.2939538061618805e-01</leafValues></_>
    <_>
      <internalNodes>
        0 -1 134448 -4.0121376514434814e-02</internalNodes>
      <leafValues>
        4.5487394928932190e-01 -6.3957817852497101e-02</leafValues></_>
    <_>
      <internalNodes>
        0 -1 860 -5.1192438602447510e-01</internalNodes>
      <leafValues>
        -7.1886706352233887e-01 4.0973607450723648e-02</leafValues></_>
    <_>
      <internalNodes>
        0 -1 60409 4.5969389379024506e-02</internalNodes>
      <leafValues>
        3.8053520023822784e-02 -5.7655793428421021e-01</leafValues></_>
    <_>
      <internalNodes>
        0 -1 5871 2.5157146155834198e-02</internalNodes>
      <leafValues>
        3.4630566835403442e-02 -6.6309010982513428e-01</leafValues></_>
    <_>
      <internalNodes>
        0 -1 85777 -6.4503040630370378e-04</internalNodes>
      <leafValues>
        -4.0049692988395691e-01 6.0080960392951965e-02</leafValues></_>
    <_>
      <internalNodes>
        0 -1 131021 5.7250674813985825e-02</internalNodes>
      <leafValues>
        -4.4463541358709335e-02 6.5138638019561768e-01</leafValues></_>
    <_>
      <internalNodes>
        0 -1 50345 -1.2590533494949341e-01</internalNodes>
      <leafValues>
        3.8553673774003983e-02 -8.0636310577392578e-01</leafValues></_>
    <_>
      <internalNodes>
        0 -1 60614 -1.0094606876373291e-01</internalNodes>
      <leafValues>
        -4.5201724767684937e-01 5.4857414215803146e-02</leafValues></_>
    <_>
      <internalNodes>
        0 -1 161379 1.2910915538668633e-02</internalNodes>
      <leafValues>
        -9.7564764320850372e-02 3.0759805440902710e-01</leafValues></_>
    <_>
      <internalNodes>
        0 -1 159731 1.9293110817670822e-03</internalNodes>
      <leafValues>
        7.4877053499221802e-02 -4.0977099537849426e-01</leafValues></_>
    <_>
      <internalNodes>
        0 -1 90857 -3.0045438557863235e-02</internalNodes>
      <leafValues>
        6.5612047910690308e-01 -4.8690319061279297e-02</leafValues></_>
    <_>
      <internalNodes>
        0 -1 100705 -7.8830365091562271e-03</internalNodes>
      <leafValues>
        3.6448612809181213e-01 -7.1999102830886841e-02</leafValues></_></weakClassifiers></stage11>
</opencv_storage>
